{"learner":{"attributes":{"scikit_learn":"{\"_estimator_type\": \"regressor\"}"},"feature_names":["Wm","W0m","dm","tm","rows","Xa","Ya"],"feature_types":["float","float","float","float","float","float","float"],"gradient_booster":{"model":{"cats":{"enc":[],"feature_segments":[],"sorted_idx":[]},"gbtree_model_param":{"num_parallel_tree":"1","num_trees":"300"},"iteration_indptr":[0,1,2,3,4,5,6,7,8,9,10,11,12,13,14,15,16,17,18,19,20,21,22,23,24,25,26,27,28,29,30,31,32,33,34,35,36,37,38,39,40,41,42,43,44,45,46,47,48,49,50,51,52,53,54,55,56,57,58,59,60,61,62,63,64,65,66,67,68,69,70,71,72,73,74,75,76,77,78,79,80,81,82,83,84,85,86,87,88,89,90,91,92,93,94,95,96,97,98,99,100,101,102,103,104,105,106,107,108,109,110,111,112,113,114,115,116,117,118,119,120,121,122,123,124,125,126,127,128,129,130,131,132,133,134,135,136,137,138,139,140,141,142,143,144,145,146,147,148,149,150,151,152,153,154,155,156,157,158,159,160,161,162,163,164,165,166,167,168,169,170,171,172,173,174,175,176,177,178,179,180,181,182,183,184,185,186,187,188,189,190,191,192,193,194,195,196,197,198,199,200,201,202,203,204,205,206,207,208,209,210,211,212,213,214,215,216,217,218,219,220,221,222,223,224,225,226,227,228,229,230,231,232,233,234,235,236,237,238,239,240,241,242,243,244,245,246,247,248,249,250,251,252,253,254,255,256,257,258,259,260,261,262,263,264,265,266,267,268,269,270,271,272,273,274,275,276,277,278,279,280,281,282,283,284,285,286,287,288,289,290,291,292,293,294,295,296,297,298,299,300],"tree_info":[0,0,0,0,0,0,0,0,0,0,0,0,0,0,0,0,0,0,0,0,0,0,0,0,0,0,0,0,0,0,0,0,0,0,0,0,0,0,0,0,0,0,0,0,0,0,0,0,0,0,0,0,0,0,0,0,0,0,0,0,0,0,0,0,0,0,0,0,0,0,0,0,0,0,0,0,0,0,0,0,0,0,0,0,0,0,0,0,0,0,0,0,0,0,0,0,0,0,0,0,0,0,0,0,0,0,0,0,0,0,0,0,0,0,0,0,0,0,0,0,0,0,0,0,0,0,0,0,0,0,0,0,0,0,0,0,0,0,0,0,0,0,0,0,0,0,0,0,0,0,0,0,0,0,0,0,0,0,0,0,0,0,0,0,0,0,0,0,0,0,0,0,0,0,0,0,0,0,0,0,0,0,0,0,0,0,0,0,0,0,0,0,0,0,0,0,0,0,0,0,0,0,0,0,0,0,0,0,0,0,0,0,0,0,0,0,0,0,0,0,0,0,0,0,0,0,0,0,0,0,0,0,0,0,0,0,0,0,0,0,0,0,0,0,0,0,0,0,0,0,0,0,0,0,0,0,0,0,0,0,0,0,0,0,0,0,0,0,0,0,0,0,0,0,0,0,0,0,0,0,0,0,0,0,0,0,0,0,0,0,0,0,0,0,0,0,0,0,0,0],"trees":[{"base_weights":[2.9217963E-8,3.6861233E-2,-1.6382757E0,5.2963383E-2,-4.694159E-2,-5.61069E-1,2.9822698E-2,4.0544696E-2,1.06134135E-2,-1.8954408E-1,4.1156072E-2,1.51627725E-2,6.081727E-2,-3.9950833E-2,-1.539164E-1,-1.6238087E-1,9.5419E-2,3.5231795E-2,-7.93582E-3,4.9638905E-2,8.076103E-2,-2.23493E-1,-7.151344E-2,-2.3888548E-1,-7.0287585E-3,4.2805027E-2,1.1336569E-2,-4.538497E-3,5.04381E-3,-3.8722132E-3,2.6432446E-3,2.079995E-3,7.8061866E-3,1.0275151E-2,7.104534E-3,-1.2688756E-2,-2.5593478E-2,-2.3325204E-3,-9.26919E-3,-2.8782655E-2,2.9098988E-4,7.827974E-3,-6.155817E-3,4.9904143E-3,1.9680322E-3],"categories":[],"categories_nodes":[],"categories_segments":[],"categories_sizes":[],"default_left":[0,0,0,0,0,0,0,0,0,0,0,0,0,0,0,0,0,0,0,0,0,0,0,0,0,0,0,0,0,0,0,0,0,0,0,0,0,0,0,0,0,0,0,0,0],"id":0,"left_children":[1,3,5,7,9,-1,-1,11,-1,13,15,17,19,-1,21,23,25,27,29,31,33,35,37,39,41,43,-1,-1,-1,-1,-1,-1,-1,-1,-1,-1,-1,-1,-1,-1,-1,-1,-1,-1,-1],"loss_changes":[2.4699026E1,5.422485E-1,7.0906586E1,2.175613E-1,8.2439244E-1,0E0,0E0,1.4006647E-1,0E0,1.2552267E-1,4.6831915E-1,5.7298236E-2,2.9877722E-2,0E0,1.1588359E-1,1.0528733E-1,2.6307523E-2,8.319738E-2,6.2391702E-2,8.0345154E-2,4.023552E-3,5.1336884E-3,1.0084573E-2,7.183984E-2,2.3426043E-2,6.595198E-4,0E0,0E0,0E0,0E0,0E0,0E0,0E0,0E0,0E0,0E0,0E0,0E0,0E0,0E0,0E0,0E0,0E0,0E0,0E0],"parents":[2147483647,0,0,1,1,2,2,3,3,4,4,7,7,9,9,10,10,11,11,12,12,14,14,15,15,16,16,17,17,18,18,19,19,20,20,21,21,22,22,23,23,24,24,25,25],"right_children":[2,4,6,8,10,-1,-1,12,-1,14,16,18,20,-1,22,24,26,28,30,32,34,36,38,40,42,44,-1,-1,-1,-1,-1,-1,-1,-1,-1,-1,-1,-1,-1,-1,-1,-1,-1,-1,-1],"split_conditions":[6.9643E3,1.6607E4,1.1328E3,1.1786E4,3.5435E3,-5.61069E-1,2.9822698E-2,5E0,1.06134135E-2,2.1429E2,2.1429E2,6.9643E3,7E0,-3.9950833E-2,1.1328E3,8.365E3,5.9543E3,1.1328E3,3.5143E2,6.9643E3,2.1429E2,3.5143E2,3.5143E2,6.5143E2,3.2571E2,6.5143E2,1.1336569E-2,-4.538497E-3,5.04381E-3,-3.8722132E-3,2.6432446E-3,2.079995E-3,7.8061866E-3,1.0275151E-2,7.104534E-3,-1.2688756E-2,-2.5593478E-2,-2.3325204E-3,-9.26919E-3,-2.8782655E-2,2.9098988E-4,7.827974E-3,-6.155817E-3,4.9904143E-3,1.9680322E-3],"split_indices":[0,6,5,6,5,0,0,4,0,2,2,6,4,0,5,5,5,5,2,6,2,2,2,1,1,1,0,0,0,0,0,0,0,0,0,0,0,0,0,0,0,0,0,0,0],"split_type":[0,0,0,0,0,0,0,0,0,0,0,0,0,0,0,0,0,0,0,0,0,0,0,0,0,0,0,0,0,0,0,0,0,0,0,0,0,0,0,0,0,0,0,0,0],"sum_hessian":[4.07E2,3.99E2,8E0,3.35E2,6.4E1,2E0,6E0,2.73E2,6.2E1,2.4E1,4E1,1.22E2,1.51E2,2E0,2.2E1,8E0,3.2E1,6.5E1,5.7E1,9.9E1,5.2E1,1.1E1,1.1E1,5E0,3E0,9E0,2.3E1,1E1,5.5E1,3E1,2.7E1,5E1,4.9E1,1.3E1,3.9E1,4E0,7E0,4E0,7E0,4E0,1E0,1E0,2E0,6E0,3E0],"tree_param":{"num_deleted":"0","num_feature":"7","num_nodes":"45","size_leaf_vector":"1"}},{"base_weights":[-1.4520761E-3,3.3022076E-2,-1.5334754E0,4.7777597E-2,-4.3760642E-2,-5.236644E-1,2.7266476E-2,3.6587063E-2,9.568916E-2,-1.7418304E-1,3.683254E-2,1.3640608E-2,5.4914873E-2,1.1634274E-2,8.681111E-2,-3.728744E-2,-1.4069359E-1,-1.4912279E-1,8.6431496E-2,3.171633E-2,-7.163504E-3,4.4773836E-2,7.301278E-2,6.5359212E-3,9.5494585E-3,-2.0433383E-1,-6.5328896E-2,-2.1974559E-1,-5.907893E-3,3.922038E-2,1.0250148E-2,-4.125903E-3,4.5484416E-3,-3.4974886E-3,2.3883504E-3,1.876077E-3,7.041169E-3,9.321033E-3,6.411832E-3,-1.1673646E-2,-2.3354044E-2,-2.1459246E-3,-8.458132E-3,-2.6480047E-2,2.7643444E-4,7.4365735E-3,-5.7454347E-3,6.3487294E-4,4.2167376E-3],"categories":[],"categories_nodes":[],"categories_segments":[],"categories_sizes":[],"default_left":[0,0,0,0,0,0,0,0,0,0,0,0,0,0,0,0,0,0,0,0,0,0,0,0,0,0,0,0,0,0,0,0,0,0,0,0,0,0,0,0,0,0,0,0,0,0,0,0,0],"id":1,"left_children":[1,3,5,7,9,-1,-1,11,13,15,17,19,21,-1,23,-1,25,27,29,31,33,35,37,-1,-1,39,41,43,45,47,-1,-1,-1,-1,-1,-1,-1,-1,-1,-1,-1,-1,-1,-1,-1,-1,-1,-1,-1],"loss_changes":[2.1599243E1,4.5527825E-1,6.1623817E1,1.7664742E-1,6.8964076E-1,0E0,0E0,1.1448389E-1,1.4520288E-3,1.1389059E-1,3.910397E-1,4.6481278E-2,2.4627745E-2,0E0,2.699852E-3,0E0,9.696433E-2,8.9729905E-2,2.1016374E-2,6.818888E-2,5.0916005E-2,6.537092E-2,3.5447776E-3,0E0,0E0,3.4383535E-3,8.320112E-3,6.0882926E-2,2.0823918E-2,7.0101675E-4,0E0,0E0,0E0,0E0,0E0,0E0,0E0,0E0,0E0,0E0,0E0,0E0,0E0,0E0,0E0,0E0,0E0,0E0,0E0],"parents":[2147483647,0,0,1,1,2,2,3,3,4,4,7,7,8,8,9,9,10,10,11,11,12,12,14,14,16,16,17,17,18,18,19,19,20,20,21,21,22,22,25,25,26,26,27,27,28,28,29,29],"right_children":[2,4,6,8,10,-1,-1,12,14,16,18,20,22,-1,24,-1,26,28,30,32,34,36,38,-1,-1,40,42,44,46,48,-1,-1,-1,-1,-1,-1,-1,-1,-1,-1,-1,-1,-1,-1,-1,-1,-1,-1,-1],"split_conditions":[6.9643E3,1.6607E4,1.1328E3,1.1786E4,3.5435E3,-5.236644E-1,2.7266476E-2,5E0,2.1429E2,2.1429E2,2.1429E2,6.9643E3,7E0,1.1634274E-2,3.5143E2,-3.728744E-2,1.1328E3,8.365E3,5.9543E3,1.1328E3,3.5143E2,6.9643E3,2.1429E2,6.5359212E-3,9.5494585E-3,3.5143E2,3.5143E2,6.5143E2,3.2571E2,3.2571E2,1.0250148E-2,-4.125903E-3,4.5484416E-3,-3.4974886E-3,2.3883504E-3,1.876077E-3,7.041169E-3,9.321033E-3,6.411832E-3,-1.1673646E-2,-2.3354044E-2,-2.1459246E-3,-8.458132E-3,-2.6480047E-2,2.7643444E-4,7.4365735E-3,-5.7454347E-3,6.3487294E-4,4.2167376E-3],"split_indices":[0,6,5,6,5,0,0,4,2,2,2,6,4,0,2,0,5,5,5,5,2,6,2,0,0,2,2,1,1,1,0,0,0,0,0,0,0,0,0,0,0,0,0,0,0,0,0,0,0],"split_type":[0,0,0,0,0,0,0,0,0,0,0,0,0,0,0,0,0,0,0,0,0,0,0,0,0,0,0,0,0,0,0,0,0,0,0,0,0,0,0,0,0,0,0,0,0,0,0,0,0],"sum_hessian":[4.07E2,3.99E2,8E0,3.35E2,6.4E1,2E0,6E0,2.73E2,6.2E1,2.4E1,4E1,1.22E2,1.51E2,1.5E1,4.7E1,2E0,2.2E1,8E0,3.2E1,6.5E1,5.7E1,9.9E1,5.2E1,1.6E1,3.1E1,1.1E1,1.1E1,5E0,3E0,9E0,2.3E1,1E1,5.5E1,3E1,2.7E1,5E1,4.9E1,1.3E1,3.9E1,4E0,7E0,4E0,7E0,4E0,1E0,1E0,2E0,1E0,8E0],"tree_param":{"num_deleted":"0","num_feature":"7","num_nodes":"49","size_leaf_vector":"1"}},{"base_weights":[-2.6231543E-3,2.9618254E-2,-1.4352832E0,4.315365E-2,-4.0805E-2,-4.887534E-1,2.4929347E-2,3.3015806E-2,8.6560234E-2,-1.6008148E-1,3.2919798E-2,1.2270962E-2,4.9585547E-2,1.0543554E-2,7.8465134E-2,-3.4801614E-2,-1.286082E-1,-1.3693415E-1,7.824603E-2,2.8551001E-2,-6.4661666E-3,4.038558E-2,6.600839E-2,5.920768E-3,8.624362E-2,-1.8681939E-1,-5.9679646E-2,-1.7171279E-1,7.064748E-3,3.578355E-2,9.267848E-3,-3.7508272E-3,4.101709E-3,-3.1590108E-3,2.158056E-3,1.6921441E-3,6.3511296E-3,8.455514E-3,5.7866825E-3,6.710714E-3,9.918127E-3,-1.0739751E-2,-2.1310566E-2,-1.9742441E-3,-7.718045E-3,-1.9699352E-2,2.6261806E-4,4.25241E-3,1.5041709E-3],"categories":[],"categories_nodes":[],"categories_segments":[],"categories_sizes":[],"default_left":[0,0,0,0,0,0,0,0,0,0,0,0,0,0,0,0,0,0,0,0,0,0,0,0,0,0,0,0,0,0,0,0,0,0,0,0,0,0,0,0,0,0,0,0,0,0,0,0,0],"id":2,"left_children":[1,3,5,7,9,-1,-1,11,13,15,17,19,21,-1,23,-1,25,27,29,31,33,35,37,-1,39,41,43,45,-1,47,-1,-1,-1,-1,-1,-1,-1,-1,-1,-1,-1,-1,-1,-1,-1,-1,-1,-1,-1],"loss_changes":[1.8888428E1,3.8304356E-1,5.3558662E1,1.4499867E-1,5.76856E-1,0E0,0E0,9.357542E-2,1.353234E-3,1.031152E-1,3.2636696E-1,3.7704676E-2,2.0299792E-2,0E0,2.0838082E-3,0E0,8.113623E-2,7.7105746E-2,1.6907275E-2,5.588953E-2,4.1551102E-2,5.3187802E-2,3.1100363E-3,0E0,1.2668371E-3,2.1654367E-3,6.8634637E-3,3.5776675E-2,0E0,7.584784E-4,0E0,0E0,0E0,0E0,0E0,0E0,0E0,0E0,0E0,0E0,0E0,0E0,0E0,0E0,0E0,0E0,0E0,0E0,0E0],"parents":[2147483647,0,0,1,1,2,2,3,3,4,4,7,7,8,8,9,9,10,10,11,11,12,12,14,14,16,16,17,17,18,18,19,19,20,20,21,21,22,22,24,24,25,25,26,26,27,27,29,29],"right_children":[2,4,6,8,10,-1,-1,12,14,16,18,20,22,-1,24,-1,26,28,30,32,34,36,38,-1,40,42,44,46,-1,48,-1,-1,-1,-1,-1,-1,-1,-1,-1,-1,-1,-1,-1,-1,-1,-1,-1,-1,-1],"split_conditions":[6.9643E3,1.6607E4,1.1328E3,1.1786E4,3.5435E3,-4.887534E-1,2.4929347E-2,5E0,2.1429E2,2.1429E2,2.1429E2,6.9643E3,7E0,1.0543554E-2,3.5143E2,-3.4801614E-2,1.1328E3,1.0776E4,5.9543E3,1.1328E3,3.5143E2,6.9643E3,2.1429E2,5.920768E-3,4.8857E2,3.5143E2,3.5143E2,6.5143E2,7.064748E-3,6.5143E2,9.267848E-3,-3.7508272E-3,4.101709E-3,-3.1590108E-3,2.158056E-3,1.6921441E-3,6.3511296E-3,8.455514E-3,5.7866825E-3,6.710714E-3,9.918127E-3,-1.0739751E-2,-2.1310566E-2,-1.9742441E-3,-7.718045E-3,-1.9699352E-2,2.6261806E-4,4.25241E-3,1.5041709E-3],"split_indices":[0,6,5,6,5,0,0,4,2,2,2,6,4,0,2,0,5,5,5,5,2,6,2,0,1,2,2,1,0,1,0,0,0,0,0,0,0,0,0,0,0,0,0,0,0,0,0,0,0],"split_type":[0,0,0,0,0,0,0,0,0,0,0,0,0,0,0,0,0,0,0,0,0,0,0,0,0,0,0,0,0,0,0,0,0,0,0,0,0,0,0,0,0,0,0,0,0,0,0,0,0],"sum_hessian":[4.07E2,3.99E2,8E0,3.35E2,6.4E1,2E0,6E0,2.73E2,6.2E1,2.4E1,4E1,1.22E2,1.51E2,1.5E1,4.7E1,2E0,2.2E1,8E0,3.2E1,6.5E1,5.7E1,9.9E1,5.2E1,1.6E1,3.1E1,1.1E1,1.1E1,7E0,1E0,9E0,2.3E1,1E1,5.5E1,3E1,2.7E1,5E1,4.9E1,1.3E1,3.9E1,1.5E1,1.6E1,4E0,7E0,4E0,7E0,6E0,1E0,6E0,3E0],"tree_param":{"num_deleted":"0","num_feature":"7","num_nodes":"49","size_leaf_vector":"1"}},{"base_weights":[-3.5446386E-3,2.6608512E-2,-1.3432908E0,3.9001152E-2,-3.786127E-2,-4.5616984E-1,2.2792552E-2,2.9793173E-2,7.842949E-2,-1.4713505E-1,2.9692527E-2,1.1038544E-2,4.477361E-2,9.555093E-3,7.1088396E-2,-3.2481495E-2,-1.17562234E-1,-1.246154E-1,7.087673E-2,2.5701176E-2,-5.8368403E-3,3.642745E-2,5.9676293E-2,5.3635305E-3,7.813884E-2,-1.708083E-1,-5.4519314E-2,-1.890492E-1,3.1891465E-3,3.2780837E-2,8.379683E-3,-3.409845E-3,3.6988582E-3,-2.8532967E-3,1.9499472E-3,1.5262562E-3,5.7287086E-3,7.6703588E-3,5.2224835E-3,6.0815797E-3,8.984649E-3,-9.880567E-3,-1.944589E-2,-1.8162966E-3,-7.042712E-3,-2.2785703E-2,2.4949314E-4,6.7115068E-3,-4.049118E-3,3.905058E-4,3.5555363E-3],"categories":[],"categories_nodes":[],"categories_segments":[],"categories_sizes":[],"default_left":[0,0,0,0,0,0,0,0,0,0,0,0,0,0,0,0,0,0,0,0,0,0,0,0,0,0,0,0,0,0,0,0,0,0,0,0,0,0,0,0,0,0,0,0,0,0,0,0,0,0,0],"id":3,"left_children":[1,3,5,7,9,-1,-1,11,13,15,17,19,21,-1,23,-1,25,27,29,31,33,35,37,-1,39,41,43,45,47,49,-1,-1,-1,-1,-1,-1,-1,-1,-1,-1,-1,-1,-1,-1,-1,-1,-1,-1,-1,-1,-1],"loss_changes":[1.651795E1,3.2105696E-1,4.655106E1,1.1964995E-1,4.841896E-1,0E0,0E0,7.648677E-2,1.1258721E-3,9.3176425E-2,2.693894E-1,3.0584827E-2,1.6731918E-2,0E0,1.7154962E-3,0E0,6.789377E-2,7.471728E-2,1.3495758E-2,4.581011E-2,3.3908475E-2,4.3274835E-2,2.718687E-3,0E0,1.0259151E-3,1.2212396E-3,5.6610294E-3,4.5168966E-2,1.388679E-2,6.623203E-4,0E0,0E0,0E0,0E0,0E0,0E0,0E0,0E0,0E0,0E0,0E0,0E0,0E0,0E0,0E0,0E0,0E0,0E0,0E0,0E0,0E0],"parents":[2147483647,0,0,1,1,2,2,3,3,4,4,7,7,8,8,9,9,10,10,11,11,12,12,14,14,16,16,17,17,18,18,19,19,20,20,21,21,22,22,24,24,25,25,26,26,27,27,28,28,29,29],"right_children":[2,4,6,8,10,-1,-1,12,14,16,18,20,22,-1,24,-1,26,28,30,32,34,36,38,-1,40,42,44,46,48,50,-1,-1,-1,-1,-1,-1,-1,-1,-1,-1,-1,-1,-1,-1,-1,-1,-1,-1,-1,-1,-1],"split_conditions":[6.9643E3,1.6607E4,1.1328E3,1.1786E4,3.5435E3,-4.5616984E-1,2.2792552E-2,5E0,2.1429E2,2.1429E2,2.1429E2,6.9643E3,7E0,9.555093E-3,3.5143E2,-3.2481495E-2,1.1328E3,8.365E3,5.9543E3,1.1328E3,3.5143E2,6.9643E3,2.1429E2,5.3635305E-3,4.8857E2,3.5143E2,3.5143E2,6.5143E2,3.2571E2,3.2571E2,8.379683E-3,-3.409845E-3,3.6988582E-3,-2.8532967E-3,1.9499472E-3,1.5262562E-3,5.7287086E-3,7.6703588E-3,5.2224835E-3,6.0815797E-3,8.984649E-3,-9.880567E-3,-1.944589E-2,-1.8162966E-3,-7.042712E-3,-2.2785703E-2,2.4949314E-4,6.7115068E-3,-4.049118E-3,3.905058E-4,3.5555363E-3],"split_indices":[0,6,5,6,5,0,0,4,2,2,2,6,4,0,2,0,5,5,5,5,2,6,2,0,1,2,2,1,1,1,0,0,0,0,0,0,0,0,0,0,0,0,0,0,0,0,0,0,0,0,0],"split_type":[0,0,0,0,0,0,0,0,0,0,0,0,0,0,0,0,0,0,0,0,0,0,0,0,0,0,0,0,0,0,0,0,0,0,0,0,0,0,0,0,0,0,0,0,0,0,0,0,0,0,0],"sum_hessian":[4.07E2,3.99E2,8E0,3.35E2,6.4E1,2E0,6E0,2.73E2,6.2E1,2.4E1,4E1,1.22E2,1.51E2,1.5E1,4.7E1,2E0,2.2E1,8E0,3.2E1,6.5E1,5.7E1,9.9E1,5.2E1,1.6E1,3.1E1,1.1E1,1.1E1,5E0,3E0,9E0,2.3E1,1E1,5.5E1,3E1,2.7E1,5E1,4.9E1,1.3E1,3.9E1,1.5E1,1.6E1,4E0,7E0,4E0,7E0,4E0,1E0,1E0,2E0,1E0,8E0],"tree_param":{"num_deleted":"0","num_feature":"7","num_nodes":"51","size_leaf_vector":"1"}},{"base_weights":[-4.322724E-3,2.3875905E-2,-1.2571149E0,3.5248403E-2,-3.527847E-2,-4.2575857E-1,2.0838901E-2,2.6885122E-2,7.106253E-2,-1.3524824E-1,2.6539164E-2,9.9297175E-3,4.042874E-2,8.659302E-3,6.4405225E-2,-3.0316068E-2,-1.0746627E-1,-1.1436208E-1,6.416256E-2,2.3135467E-2,-5.2687177E-3,2.9993422E-2,5.222449E-2,4.8587336E-3,7.079582E-2,-1.5617134E-1,-4.9805682E-2,-1.7390032E-1,3.5358071E-3,4.3535836E-2,8.601224E-3,-3.0998576E-3,3.3355807E-3,-2.5771619E-3,1.761909E-3,4.9657165E-3,1.2284989E-3,3.560356E-3,8.686999E-3,5.5114315E-3,8.139043E-3,-9.090124E-3,-1.7744375E-2,-1.6709948E-3,-6.4264806E-3,-2.096285E-2,2.3702384E-4,6.3759326E-3,-3.7791808E-3,4.9010874E-3,2.3504773E-3],"categories":[],"categories_nodes":[],"categories_segments":[],"categories_sizes":[],"default_left":[0,0,0,0,0,0,0,0,0,0,0,0,0,0,0,0,0,0,0,0,0,0,0,0,0,0,0,0,0,0,0,0,0,0,0,0,0,0,0,0,0,0,0,0,0,0,0,0,0,0,0],"id":4,"left_children":[1,3,5,7,9,-1,-1,11,13,15,17,19,21,-1,23,-1,25,27,29,31,33,35,37,-1,39,41,43,45,47,49,-1,-1,-1,-1,-1,-1,-1,-1,-1,-1,-1,-1,-1,-1,-1,-1,-1,-1,-1,-1,-1],"loss_changes":[1.44434395E1,2.703367E-1,4.0462044E1,9.872931E-2,4.0528256E-1,0E0,0E0,6.251922E-2,9.366274E-4,8.404395E-2,2.2468626E-1,2.480882E-2,1.7143667E-2,0E0,1.4123172E-3,0E0,5.6814134E-2,6.378978E-2,1.1128068E-2,3.754969E-2,2.7671527E-2,2.829174E-2,3.7215933E-2,0E0,8.3068013E-4,5.315542E-4,4.6685617E-3,3.828381E-2,1.236516E-2,9.317547E-4,0E0,0E0,0E0,0E0,0E0,0E0,0E0,0E0,0E0,0E0,0E0,0E0,0E0,0E0,0E0,0E0,0E0,0E0,0E0,0E0,0E0],"parents":[2147483647,0,0,1,1,2,2,3,3,4,4,7,7,8,8,9,9,10,10,11,11,12,12,14,14,16,16,17,17,18,18,19,19,20,20,21,21,22,22,24,24,25,25,26,26,27,27,28,28,29,29],"right_children":[2,4,6,8,10,-1,-1,12,14,16,18,20,22,-1,24,-1,26,28,30,32,34,36,38,-1,40,42,44,46,48,50,-1,-1,-1,-1,-1,-1,-1,-1,-1,-1,-1,-1,-1,-1,-1,-1,-1,-1,-1,-1,-1],"split_conditions":[6.9643E3,1.6607E4,1.1328E3,1.1786E4,3.5435E3,-4.2575857E-1,2.0838901E-2,5E0,2.1429E2,2.1429E2,2.1429E2,6.9643E3,3.5143E2,8.659302E-3,3.5143E2,-3.0316068E-2,1.1328E3,8.365E3,8.365E3,1.1328E3,3.5143E2,2.1429E2,6.9643E3,4.8587336E-3,4.8857E2,3.5143E2,3.5143E2,6.5143E2,3.2571E2,6.5143E2,8.601224E-3,-3.0998576E-3,3.3355807E-3,-2.5771619E-3,1.761909E-3,4.9657165E-3,1.2284989E-3,3.560356E-3,8.686999E-3,5.5114315E-3,8.139043E-3,-9.090124E-3,-1.7744375E-2,-1.6709948E-3,-6.4264806E-3,-2.096285E-2,2.3702384E-4,6.3759326E-3,-3.7791808E-3,4.9010874E-3,2.3504773E-3],"split_indices":[0,6,5,6,5,0,0,4,2,2,2,6,2,0,2,0,5,5,5,5,2,2,6,0,1,2,2,1,1,1,0,0,0,0,0,0,0,0,0,0,0,0,0,0,0,0,0,0,0,0,0],"split_type":[0,0,0,0,0,0,0,0,0,0,0,0,0,0,0,0,0,0,0,0,0,0,0,0,0,0,0,0,0,0,0,0,0,0,0,0,0,0,0,0,0,0,0,0,0,0,0,0,0,0,0],"sum_hessian":[4.07E2,3.99E2,8E0,3.35E2,6.4E1,2E0,6E0,2.73E2,6.2E1,2.4E1,4E1,1.22E2,1.51E2,1.5E1,4.7E1,2E0,2.2E1,8E0,3.2E1,6.5E1,5.7E1,8.2E1,6.9E1,1.6E1,3.1E1,1.1E1,1.1E1,5E0,3E0,1.8E1,1.4E1,1E1,5.5E1,3E1,2.7E1,3.8E1,4.4E1,4.8E1,2.1E1,1.5E1,1.6E1,4E0,7E0,4E0,7E0,4E0,1E0,1E0,2E0,1.3E1,5E0],"tree_param":{"num_deleted":"0","num_feature":"7","num_nodes":"51","size_leaf_vector":"1"}},{"base_weights":[-4.9380427E-3,2.143207E-2,-1.1763945E0,3.185757E-2,-3.2789458E-2,-3.9737463E-1,1.9052705E-2,2.4261799E-2,6.438746E-2,-1.24333315E-1,2.382971E-2,8.9320615E-3,3.6507167E-2,7.847487E-3,5.8350254E-2,-2.8294994E-2,-9.823839E-2,-1.04940176E-1,5.8226656E-2,-4.8854547E-3,2.2169147E-2,2.858072E-2,5.077391E-2,4.401441E-3,6.414273E-2,-1.4279044E-1,-4.549982E-2,-1.5996452E-1,3.8313866E-3,2.6251484E-2,6.912354E-2,2.7923635E-3,-1.4352993E-3,1.3463796E-4,4.229913E-3,1.0585024E-3,4.6364716E-3,5.203812E-3,1.2357791E-3,4.9947263E-3,7.373006E-3,-8.362909E-3,-1.6191749E-2,-1.5373087E-3,-5.8641555E-3,-1.9285813E-2,2.2517443E-4,6.0571316E-3,-3.527236E-3,3.2082696E-3,9.483993E-4,4.89198E-3,7.798446E-3],"categories":[],"categories_nodes":[],"categories_segments":[],"categories_sizes":[],"default_left":[0,0,0,0,0,0,0,0,0,0,0,0,0,0,0,0,0,0,0,0,0,0,0,0,0,0,0,0,0,0,0,0,0,0,0,0,0,0,0,0,0,0,0,0,0,0,0,0,0,0,0,0,0],"id":5,"left_children":[1,3,5,7,9,-1,-1,11,13,15,17,19,21,-1,23,-1,25,27,29,31,33,35,37,-1,39,41,43,45,47,49,51,-1,-1,-1,-1,-1,-1,-1,-1,-1,-1,-1,-1,-1,-1,-1,-1,-1,-1,-1,-1,-1,-1],"loss_changes":[1.262892E1,2.2715917E-1,3.5170948E1,8.145991E-2,3.3986673E-1,0E0,0E0,5.1108718E-2,7.790327E-4,7.568064E-2,1.8771127E-1,2.2605456E-2,1.5737712E-2,0E0,1.1627078E-3,0E0,4.7544137E-2,5.4478653E-2,9.683579E-3,1.9348687E-2,2.6350249E-2,3.1512767E-2,1.9309223E-3,0E0,6.724894E-4,3.796816E-5,3.8495064E-3,3.2449543E-2,1.1011468E-2,6.734757E-4,4.8158318E-4,0E0,0E0,0E0,0E0,0E0,0E0,0E0,0E0,0E0,0E0,0E0,0E0,0E0,0E0,0E0,0E0,0E0,0E0,0E0,0E0,0E0,0E0],"parents":[2147483647,0,0,1,1,2,2,3,3,4,4,7,7,8,8,9,9,10,10,11,11,12,12,14,14,16,16,17,17,18,18,19,19,20,20,21,21,22,22,24,24,25,25,26,26,27,27,28,28,29,29,30,30],"right_children":[2,4,6,8,10,-1,-1,12,14,16,18,20,22,-1,24,-1,26,28,30,32,34,36,38,-1,40,42,44,46,48,50,52,-1,-1,-1,-1,-1,-1,-1,-1,-1,-1,-1,-1,-1,-1,-1,-1,-1,-1,-1,-1,-1,-1],"split_conditions":[6.9643E3,1.6607E4,1.1328E3,1.1786E4,3.5435E3,-3.9737463E-1,1.9052705E-2,5E0,2.1429E2,2.1429E2,2.1429E2,4.8857E2,7E0,7.847487E-3,3.5143E2,-2.8294994E-2,1.1328E3,8.365E3,5.9543E3,2.1429E2,3.5143E2,6.9643E3,1.0776E4,4.401441E-3,4.8857E2,3.5143E2,3.5143E2,6.5143E2,3.2571E2,6.5143E2,8.365E3,2.7923635E-3,-1.4352993E-3,1.3463796E-4,4.229913E-3,1.0585024E-3,4.6364716E-3,5.203812E-3,1.2357791E-3,4.9947263E-3,7.373006E-3,-8.362909E-3,-1.6191749E-2,-1.5373087E-3,-5.8641555E-3,-1.9285813E-2,2.2517443E-4,6.0571316E-3,-3.527236E-3,3.2082696E-3,9.483993E-4,4.89198E-3,7.798446E-3],"split_indices":[0,6,5,6,5,0,0,4,2,2,2,1,4,0,2,0,5,5,5,2,2,6,5,0,1,2,2,1,1,1,5,0,0,0,0,0,0,0,0,0,0,0,0,0,0,0,0,0,0,0,0,0,0],"split_type":[0,0,0,0,0,0,0,0,0,0,0,0,0,0,0,0,0,0,0,0,0,0,0,0,0,0,0,0,0,0,0,0,0,0,0,0,0,0,0,0,0,0,0,0,0,0,0,0,0,0,0,0,0],"sum_hessian":[4.07E2,3.99E2,8E0,3.35E2,6.4E1,2E0,6E0,2.73E2,6.2E1,2.4E1,4E1,1.22E2,1.51E2,1.5E1,4.7E1,2E0,2.2E1,8E0,3.2E1,6E1,6.2E1,9.9E1,5.2E1,1.6E1,3.1E1,1.1E1,1.1E1,5E0,3E0,9E0,2.3E1,1.3E1,4.7E1,3.1E1,3.1E1,5E1,4.9E1,5E1,2E0,1.5E1,1.6E1,4E0,7E0,4E0,7E0,4E0,1E0,1E0,2E0,6E0,3E0,9E0,1.4E1],"tree_param":{"num_deleted":"0","num_feature":"7","num_nodes":"53","size_leaf_vector":"1"}},{"base_weights":[-5.414314E-3,1.9245192E-2,-1.1007907E0,2.879819E-2,-3.0432547E-2,-3.70883E-1,1.7419612E-2,2.1900758E-2,5.833944E-2,-1.1431002E-1,2.145451E-2,8.085321E-3,3.293627E-2,7.111779E-3,5.2864585E-2,-2.6408657E-2,-8.980394E-2,-9.6282855E-2,5.291456E-2,2.005521E-2,-5.6749913E-3,2.3465242E-2,4.3695685E-2,3.9871875E-3,5.8114946E-2,-1.30557595E-2,-4.156663E-2,-1.4714475E-1,4.080713E-3,2.4042059E-2,6.274E-2,-2.884893E-3,2.9303252E-3,-2.3688732E-3,1.4471471E-3,4.1212915E-3,7.5624784E-4,2.9129647E-3,7.415206E-3,4.5264796E-3,6.679068E-3,-1.4143229E-3,-5.351043E-3,-1.774294E-2,2.1392107E-4,5.7542804E-3,-3.2920917E-3,-3.448725E-5,2.6790036E-3,4.451711E-3,7.070592E-3],"categories":[],"categories_nodes":[],"categories_segments":[],"categories_sizes":[],"default_left":[0,0,0,0,0,0,0,0,0,0,0,0,0,0,0,0,0,0,0,0,0,0,0,0,0,0,0,0,0,0,0,0,0,0,0,0,0,0,0,0,0,0,0,0,0,0,0,0,0,0,0],"id":6,"left_children":[1,3,5,7,9,-1,-1,11,13,15,17,19,21,-1,23,-1,25,27,29,31,33,35,37,-1,39,-1,41,43,45,47,49,-1,-1,-1,-1,-1,-1,-1,-1,-1,-1,-1,-1,-1,-1,-1,-1,-1,-1,-1,-1],"loss_changes":[1.1041854E1,1.9070496E-1,3.0573006E1,6.718528E-2,2.8534257E-1,0E0,0E0,4.150787E-2,6.478429E-4,6.804484E-2,1.5695973E-1,2.0373072E-2,1.4463872E-2,0E0,9.572357E-4,0E0,3.978762E-2,4.6542592E-2,7.8532025E-3,3.0695023E-2,2.1391775E-2,2.3114E-2,2.8893992E-2,0E0,5.442351E-4,0E0,3.1736642E-3,2.7505621E-2,9.8071E-3,6.793863E-4,3.362745E-4,0E0,0E0,0E0,0E0,0E0,0E0,0E0,0E0,0E0,0E0,0E0,0E0,0E0,0E0,0E0,0E0,0E0,0E0,0E0,0E0],"parents":[2147483647,0,0,1,1,2,2,3,3,4,4,7,7,8,8,9,9,10,10,11,11,12,12,14,14,16,16,17,17,18,18,19,19,20,20,21,21,22,22,24,24,26,26,27,27,28,28,29,29,30,30],"right_children":[2,4,6,8,10,-1,-1,12,14,16,18,20,22,-1,24,-1,26,28,30,32,34,36,38,-1,40,-1,42,44,46,48,50,-1,-1,-1,-1,-1,-1,-1,-1,-1,-1,-1,-1,-1,-1,-1,-1,-1,-1,-1,-1],"split_conditions":[6.9643E3,1.6607E4,1.1328E3,1.1786E4,3.5435E3,-3.70883E-1,1.7419612E-2,5E0,2.1429E2,2.1429E2,2.1429E2,6.9643E3,3.5143E2,7.111779E-3,3.5143E2,-2.6408657E-2,1.1328E3,8.365E3,5.9543E3,1.1328E3,3.5143E2,2.1429E2,6.9643E3,3.9871875E-3,4.8857E2,-1.30557595E-2,3.5143E2,6.5143E2,3.2571E2,3.2571E2,8.365E3,-2.884893E-3,2.9303252E-3,-2.3688732E-3,1.4471471E-3,4.1212915E-3,7.5624784E-4,2.9129647E-3,7.415206E-3,4.5264796E-3,6.679068E-3,-1.4143229E-3,-5.351043E-3,-1.774294E-2,2.1392107E-4,5.7542804E-3,-3.2920917E-3,-3.448725E-5,2.6790036E-3,4.451711E-3,7.070592E-3],"split_indices":[0,6,5,6,5,0,0,4,2,2,2,6,2,0,2,0,5,5,5,5,2,2,6,0,1,0,2,1,1,1,5,0,0,0,0,0,0,0,0,0,0,0,0,0,0,0,0,0,0,0,0],"split_type":[0,0,0,0,0,0,0,0,0,0,0,0,0,0,0,0,0,0,0,0,0,0,0,0,0,0,0,0,0,0,0,0,0,0,0,0,0,0,0,0,0,0,0,0,0,0,0,0,0,0,0],"sum_hessian":[4.07E2,3.99E2,8E0,3.35E2,6.4E1,2E0,6E0,2.73E2,6.2E1,2.4E1,4E1,1.22E2,1.51E2,1.5E1,4.7E1,2E0,2.2E1,8E0,3.2E1,6.5E1,5.7E1,8.2E1,6.9E1,1.6E1,3.1E1,1.1E1,1.1E1,5E0,3E0,9E0,2.3E1,1E1,5.5E1,3E1,2.7E1,3.8E1,4.4E1,4.8E1,2.1E1,1.5E1,1.6E1,4E0,7E0,4E0,1E0,1E0,2E0,1E0,8E0,9E0,1.4E1],"tree_param":{"num_deleted":"0","num_feature":"7","num_nodes":"51","size_leaf_vector":"1"}},{"base_weights":[-5.764953E-3,1.7294418E-2,-1.0299854E0,2.6027385E-2,-2.8114367E-2,-3.4615746E-1,1.5926505E-2,1.9762946E-2,5.285959E-2,-1.04728185E-1,1.9287093E-2,1.4060902E-2,4.3274093E-2,6.445049E-3,4.7894716E-2,-2.4648078E-2,-8.168531E-2,-8.832868E-2,4.805239E-2,3.692537E-3,2.4775881E-2,5.631103E-3,3.7629314E-2,3.6119334E-3,5.2653678E-2,-1.1858978E-1,-3.7973743E-2,-1.3535182E-1,4.2881966E-3,2.1902228E-2,5.694611E-2,2.8106777E-3,-1.7980604E-3,8.1338966E-4,4.0967395E-3,2.807758E-3,4.5777163E-3,3.1917233E-3,5.6211427E-3,-6.6494034E-3,-1.363259E-2,-1.3011789E-3,-4.8828246E-3,-1.632351E-2,2.03228E-4,5.4665687E-3,-3.0726194E-3,2.7424132E-3,6.763339E-4,4.0510534E-3,6.4106747E-3],"categories":[],"categories_nodes":[],"categories_segments":[],"categories_sizes":[],"default_left":[0,0,0,0,0,0,0,0,0,0,0,0,0,0,0,0,0,0,0,0,0,0,0,0,0,0,0,0,0,0,0,0,0,0,0,0,0,0,0,0,0,0,0,0,0,0,0,0,0,0,0],"id":7,"left_children":[1,3,5,7,9,-1,-1,11,13,15,17,19,21,-1,23,-1,25,27,29,31,33,-1,35,-1,37,39,41,43,45,47,49,-1,-1,-1,-1,-1,-1,-1,-1,-1,-1,-1,-1,-1,-1,-1,-1,-1,-1,-1,-1],"loss_changes":[9.653908E0,1.593531E-1,2.6577225E1,5.543314E-2,2.3807433E-1,0E0,0E0,3.61244E-2,5.386472E-4,6.1525792E-2,1.31164E-1,2.4572007E-2,1.7813593E-3,0E0,7.88033E-4,0E0,3.259921E-2,3.977664E-2,6.427638E-3,6.082657E-2,2.9037796E-2,0E0,1.8277317E-3,0E0,5.6669116E-4,2.0228624E-3,2.6160516E-3,2.3316048E-2,8.735416E-3,6.5047573E-4,2.2754073E-4,0E0,0E0,0E0,0E0,0E0,0E0,0E0,0E0,0E0,0E0,0E0,0E0,0E0,0E0,0E0,0E0,0E0,0E0,0E0,0E0],"parents":[2147483647,0,0,1,1,2,2,3,3,4,4,7,7,8,8,9,9,10,10,11,11,12,12,14,14,16,16,17,17,18,18,19,19,20,20,22,22,24,24,25,25,26,26,27,27,28,28,29,29,30,30],"right_children":[2,4,6,8,10,-1,-1,12,14,16,18,20,22,-1,24,-1,26,28,30,32,34,-1,36,-1,38,40,42,44,46,48,50,-1,-1,-1,-1,-1,-1,-1,-1,-1,-1,-1,-1,-1,-1,-1,-1,-1,-1,-1,-1],"split_conditions":[6.9643E3,1.6607E4,1.1328E3,1.1786E4,3.5435E3,-3.4615746E-1,1.5926505E-2,7E0,2.1429E2,2.1429E2,2.1429E2,3.5143E2,2.1429E2,6.445049E-3,3.5143E2,-2.4648078E-2,1.1328E3,8.365E3,5.9543E3,2.1429E2,4.8857E2,5.631103E-3,4.8857E2,3.6119334E-3,3.2571E2,3.5143E2,3.5143E2,6.5143E2,3.2571E2,6.5143E2,8.365E3,2.8106777E-3,-1.7980604E-3,8.1338966E-4,4.0967395E-3,2.807758E-3,4.5777163E-3,3.1917233E-3,5.6211427E-3,-6.6494034E-3,-1.363259E-2,-1.3011789E-3,-4.8828246E-3,-1.632351E-2,2.03228E-4,5.4665687E-3,-3.0726194E-3,2.7424132E-3,6.763339E-4,4.0510534E-3,6.4106747E-3],"split_indices":[0,6,5,6,5,0,0,4,2,2,2,2,2,0,2,0,5,5,5,2,1,0,1,0,1,2,2,1,1,1,5,0,0,0,0,0,0,0,0,0,0,0,0,0,0,0,0,0,0,0,0],"split_type":[0,0,0,0,0,0,0,0,0,0,0,0,0,0,0,0,0,0,0,0,0,0,0,0,0,0,0,0,0,0,0,0,0,0,0,0,0,0,0,0,0,0,0,0,0,0,0,0,0,0,0],"sum_hessian":[4.07E2,3.99E2,8E0,3.35E2,6.4E1,2E0,6E0,2.73E2,6.2E1,2.4E1,4E1,2.21E2,5.2E1,1.5E1,4.7E1,2E0,2.2E1,8E0,3.2E1,1.13E2,1.08E2,1.3E1,3.9E1,1.6E1,3.1E1,1.1E1,1.1E1,5E0,3E0,9E0,2.3E1,5.3E1,6E1,5.4E1,5.4E1,2E1,1.9E1,6E0,2.5E1,4E0,7E0,4E0,7E0,4E0,1E0,1E0,2E0,6E0,3E0,9E0,1.4E1],"tree_param":{"num_deleted":"0","num_feature":"7","num_nodes":"51","size_leaf_vector":"1"}},{"base_weights":[-6.0300888E-3,1.5532092E-2,-9.636792E-1,2.3537159E-2,-2.6086902E-2,-3.2308027E-1,1.4561367E-2,1.785576E-2,4.7873132E-2,-9.629991E-2,1.736217E-2,5.8388324E-3,2.746251E-2,3.2984396E-3,5.038836E-2,-2.3004865E-2,-7.466746E-2,-8.102094E-2,4.36678E-2,1.6713023E-2,-6.6359164E-3,2.0971127E-2,3.9192244E-2,3.7138131E-3,5.3434977E-3,-1.0842097E-1,-3.4691673E-2,-1.2450329E-1,4.4578314E-3,2.0053793E-2,5.168748E-2,-2.7330595E-3,2.5066002E-3,-1.61258E-3,2.4341277E-3,5.675975E-4,3.6152757E-3,5.108205E-3,3.405101E-3,-6.117444E-3,-1.2439743E-2,-1.1970758E-3,-4.4555785E-3,-1.5017624E-2,1.9307136E-4,5.1932456E-3,-2.867786E-3,-1.6988516E-4,2.2659514E-3,3.686466E-3,5.8123525E-3],"categories":[],"categories_nodes":[],"categories_segments":[],"categories_sizes":[],"default_left":[0,0,0,0,0,0,0,0,0,0,0,0,0,0,0,0,0,0,0,0,0,0,0,0,0,0,0,0,0,0,0,0,0,0,0,0,0,0,0,0,0,0,0,0,0,0,0,0,0,0,0],"id":8,"left_children":[1,3,5,7,9,-1,-1,11,13,15,17,19,21,-1,23,-1,25,27,29,31,33,35,37,-1,-1,39,41,43,45,47,49,-1,-1,-1,-1,-1,-1,-1,-1,-1,-1,-1,-1,-1,-1,-1,-1,-1,-1,-1,-1],"loss_changes":[8.439761E0,1.3387915E-1,2.3104588E1,4.5601353E-2,1.9996682E-1,0E0,0E0,3.1471208E-2,6.9722533E-4,5.515565E-2,1.0964723E-1,1.67962E-2,1.0751717E-2,0E0,1.1467934E-4,0E0,2.7273133E-2,3.400638E-2,5.212903E-3,2.4966162E-2,1.7442781E-2,2.3015339E-2,1.5004054E-3,0E0,0E0,1.4480501E-3,2.1560928E-3,1.9765548E-2,7.7817296E-3,6.0530845E-4,1.469031E-4,0E0,0E0,0E0,0E0,0E0,0E0,0E0,0E0,0E0,0E0,0E0,0E0,0E0,0E0,0E0,0E0,0E0,0E0,0E0,0E0],"parents":[2147483647,0,0,1,1,2,2,3,3,4,4,7,7,8,8,9,9,10,10,11,11,12,12,14,14,16,16,17,17,18,18,19,19,20,20,21,21,22,22,25,25,26,26,27,27,28,28,29,29,30,30],"right_children":[2,4,6,8,10,-1,-1,12,14,16,18,20,22,-1,24,-1,26,28,30,32,34,36,38,-1,-1,40,42,44,46,48,50,-1,-1,-1,-1,-1,-1,-1,-1,-1,-1,-1,-1,-1,-1,-1,-1,-1,-1,-1,-1],"split_conditions":[6.9643E3,1.6607E4,1.1328E3,1.1786E4,3.5435E3,-3.2308027E-1,1.4561367E-2,5E0,1.1328E3,2.1429E2,2.1429E2,6.9643E3,7E0,3.2984396E-3,3.2571E2,-2.3004865E-2,1.1328E3,8.365E3,5.9543E3,1.1328E3,4.8857E2,6.9643E3,2.1429E2,3.7138131E-3,5.3434977E-3,3.5143E2,3.5143E2,6.5143E2,3.2571E2,3.2571E2,8.365E3,-2.7330595E-3,2.5066002E-3,-1.61258E-3,2.4341277E-3,5.675975E-4,3.6152757E-3,5.108205E-3,3.405101E-3,-6.117444E-3,-1.2439743E-2,-1.1970758E-3,-4.4555785E-3,-1.5017624E-2,1.9307136E-4,5.1932456E-3,-2.867786E-3,-1.6988516E-4,2.2659514E-3,3.686466E-3,5.8123525E-3],"split_indices":[0,6,5,6,5,0,0,4,5,2,2,6,4,0,1,0,5,5,5,5,2,6,2,0,0,2,2,1,1,1,5,0,0,0,0,0,0,0,0,0,0,0,0,0,0,0,0,0,0,0,0],"split_type":[0,0,0,0,0,0,0,0,0,0,0,0,0,0,0,0,0,0,0,0,0,0,0,0,0,0,0,0,0,0,0,0,0,0,0,0,0,0,0,0,0,0,0,0,0,0,0,0,0,0,0],"sum_hessian":[4.07E2,3.99E2,8E0,3.35E2,6.4E1,2E0,6E0,2.73E2,6.2E1,2.4E1,4E1,1.22E2,1.51E2,1.1E1,5.1E1,2E0,2.2E1,8E0,3.2E1,6.5E1,5.7E1,9.9E1,5.2E1,1.2E1,3.9E1,1.1E1,1.1E1,5E0,3E0,9E0,2.3E1,1E1,5.5E1,4.4E1,1.3E1,5E1,4.9E1,1.3E1,3.9E1,4E0,7E0,4E0,7E0,4E0,1E0,1E0,2E0,1E0,8E0,9E0,1.4E1],"tree_param":{"num_deleted":"0","num_feature":"7","num_nodes":"51","size_leaf_vector":"1"}},{"base_weights":[-6.238328E-3,1.3922709E-2,-9.0159124E-1,2.1259785E-2,-2.4218526E-2,-3.0154163E-1,1.3313246E-2,1.6118702E-2,4.328196E-2,-8.855853E-2,1.56038795E-2,5.2598706E-3,2.4799738E-2,5.3960057E-3,3.882089E-2,-2.1471215E-2,-6.825334E-2,-7.430771E-2,3.9652377E-2,2.681691E-2,-1.3760667E-3,1.6607523E-2,3.4159083E-2,2.843495E-3,4.3125264E-2,-9.912535E-2,-3.169356E-2,-1.14523806E-1,4.5933723E-3,1.8258046E-2,4.69145E-2,4.8768665E-3,8.452809E-4,-2.9428266E-3,1.2671534E-3,3.0435973E-3,4.2538112E-4,2.1319054E-3,6.120464E-3,3.25457E-3,5.054572E-3,-5.6280564E-3,-1.1351267E-2,-1.8607114E-3,-5.321467E-3,-1.3816223E-2,1.8341541E-4,4.933584E-3,-2.6766062E-3,2.3479154E-3,4.5565964E-4,3.3546877E-3,5.2698613E-3],"categories":[],"categories_nodes":[],"categories_segments":[],"categories_sizes":[],"default_left":[0,0,0,0,0,0,0,0,0,0,0,0,0,0,0,0,0,0,0,0,0,0,0,0,0,0,0,0,0,0,0,0,0,0,0,0,0,0,0,0,0,0,0,0,0,0,0,0,0,0,0,0,0],"id":9,"left_children":[1,3,5,7,9,-1,-1,11,13,15,17,19,21,-1,23,-1,25,27,29,31,33,35,37,-1,39,41,43,45,47,49,51,-1,-1,-1,-1,-1,-1,-1,-1,-1,-1,-1,-1,-1,-1,-1,-1,-1,-1,-1,-1,-1,-1],"loss_changes":[7.3774595E0,1.1245293E-1,2.0086472E1,3.7343547E-2,1.6792315E-1,0E0,0E0,2.5698416E-2,9.062737E-4,4.9384505E-2,9.159826E-2,1.7632196E-2,1.1087105E-2,0E0,9.19573E-4,0E0,2.2817858E-2,2.9083893E-2,4.270591E-3,1.127837E-2,3.7809182E-2,1.4049642E-2,2.300378E-2,0E0,8.671172E-4,1.0085031E-3,2.3894468E-3,1.675652E-2,6.9329194E-3,6.0838275E-4,8.780137E-5,0E0,0E0,0E0,0E0,0E0,0E0,0E0,0E0,0E0,0E0,0E0,0E0,0E0,0E0,0E0,0E0,0E0,0E0,0E0,0E0,0E0,0E0],"parents":[2147483647,0,0,1,1,2,2,3,3,4,4,7,7,8,8,9,9,10,10,11,11,12,12,14,14,16,16,17,17,18,18,19,19,20,20,21,21,22,22,24,24,25,25,26,26,27,27,28,28,29,29,30,30],"right_children":[2,4,6,8,10,-1,-1,12,14,16,18,20,22,-1,24,-1,26,28,30,32,34,36,38,-1,40,42,44,46,48,50,52,-1,-1,-1,-1,-1,-1,-1,-1,-1,-1,-1,-1,-1,-1,-1,-1,-1,-1,-1,-1,-1,-1],"split_conditions":[6.9643E3,1.6607E4,1.1328E3,1.1786E4,3.5435E3,-3.0154163E-1,1.3313246E-2,5E0,2.1429E2,2.1429E2,2.1429E2,2.1429E2,3.5143E2,5.3960057E-3,3.5143E2,-2.1471215E-2,1.1328E3,8.365E3,5.9543E3,6.9643E3,3.5143E2,2.1429E2,6.9643E3,2.843495E-3,4.8857E2,3.5143E2,6.5143E2,6.5143E2,3.2571E2,6.5143E2,8.365E3,4.8768665E-3,8.452809E-4,-2.9428266E-3,1.2671534E-3,3.0435973E-3,4.2538112E-4,2.1319054E-3,6.120464E-3,3.25457E-3,5.054572E-3,-5.6280564E-3,-1.1351267E-2,-1.8607114E-3,-5.321467E-3,-1.3816223E-2,1.8341541E-4,4.933584E-3,-2.6766062E-3,2.3479154E-3,4.5565964E-4,3.3546877E-3,5.2698613E-3],"split_indices":[0,6,5,6,5,0,0,4,2,2,2,2,2,0,2,0,5,5,5,6,2,2,6,0,1,2,1,1,1,1,5,0,0,0,0,0,0,0,0,0,0,0,0,0,0,0,0,0,0,0,0,0,0],"split_type":[0,0,0,0,0,0,0,0,0,0,0,0,0,0,0,0,0,0,0,0,0,0,0,0,0,0,0,0,0,0,0,0,0,0,0,0,0,0,0,0,0,0,0,0,0,0,0,0,0,0,0,0,0],"sum_hessian":[4.07E2,3.99E2,8E0,3.35E2,6.4E1,2E0,6E0,2.73E2,6.2E1,2.4E1,4E1,1.22E2,1.51E2,1.5E1,4.7E1,2E0,2.2E1,8E0,3.2E1,2.8E1,9.4E1,8.2E1,6.9E1,1.6E1,3.1E1,1.1E1,1.1E1,5E0,3E0,9E0,2.3E1,1.2E1,1.6E1,3.1E1,6.3E1,3.8E1,4.4E1,4.8E1,2.1E1,1.5E1,1.6E1,4E0,7E0,8E0,3E0,4E0,1E0,1E0,2E0,6E0,3E0,9E0,1.4E1],"tree_param":{"num_deleted":"0","num_feature":"7","num_nodes":"53","size_leaf_vector":"1"}},{"base_weights":[-6.353447E-3,1.249728E-2,-8.434576E-1,1.9229988E-2,-2.2497911E-2,-2.8143886E-1,1.2172107E-2,1.4564366E-2,3.9216504E-2,-8.152798E-2,1.4044762E-2,9.953899E-3,3.3601332E-2,4.890141E-3,3.5171192E-2,-2.0039797E-2,-6.24785E-2,-6.814098E-2,3.6033455E-2,1.6779398E-3,1.851817E-2,3.4606297E-2,5.316496E-4,2.5758827E-3,3.907241E-2,-9.062769E-2,-2.912277E-2,-8.837587E-2,4.686904E-3,1.6712595E-2,4.2582422E-2,2.1626176E-3,-1.6008662E-3,3.5983996E-4,3.3101246E-3,4.351255E-3,3.0414357E-3,2.9494464E-3,4.5788568E-3,-5.177808E-3,-1.0358023E-2,-1.695323E-3,-4.922354E-3,-1.0149884E-2,1.7424823E-4,-2.7878286E-4,1.9189067E-3,3.052757E-3,4.7780164E-3],"categories":[],"categories_nodes":[],"categories_segments":[],"categories_sizes":[],"default_left":[0,0,0,0,0,0,0,0,0,0,0,0,0,0,0,0,0,0,0,0,0,0,0,0,0,0,0,0,0,0,0,0,0,0,0,0,0,0,0,0,0,0,0,0,0,0,0,0,0],"id":10,"left_children":[1,3,5,7,9,-1,-1,11,13,15,17,19,21,-1,23,-1,25,27,29,31,33,35,-1,-1,37,39,41,43,-1,45,47,-1,-1,-1,-1,-1,-1,-1,-1,-1,-1,-1,-1,-1,-1,-1,-1,-1,-1],"loss_changes":[6.4487896E0,9.46776E-2,1.7463276E1,3.0760676E-2,1.413576E-1,0E0,0E0,2.371433E-2,7.483214E-4,4.4089705E-2,7.65488E-2,1.5703743E-2,1.3225526E-3,0E0,7.560849E-4,0E0,1.8956222E-2,2.5087021E-2,3.4638792E-3,4.0567294E-2,2.359669E-2,5.806498E-4,0E0,0E0,7.0795417E-4,6.7522377E-4,2.1009091E-3,9.637825E-3,0E0,5.364185E-4,4.518032E-5,0E0,0E0,0E0,0E0,0E0,0E0,0E0,0E0,0E0,0E0,0E0,0E0,0E0,0E0,0E0,0E0,0E0,0E0],"parents":[2147483647,0,0,1,1,2,2,3,3,4,4,7,7,8,8,9,9,10,10,11,11,12,12,14,14,16,16,17,17,18,18,19,19,20,20,21,21,24,24,25,25,26,26,27,27,29,29,30,30],"right_children":[2,4,6,8,10,-1,-1,12,14,16,18,20,22,-1,24,-1,26,28,30,32,34,36,-1,-1,38,40,42,44,-1,46,48,-1,-1,-1,-1,-1,-1,-1,-1,-1,-1,-1,-1,-1,-1,-1,-1,-1,-1],"split_conditions":[6.9643E3,1.6607E4,1.1328E3,1.1786E4,3.5435E3,-2.8143886E-1,1.2172107E-2,7E0,2.1429E2,2.1429E2,2.1429E2,3.5143E2,1.0776E4,4.890141E-3,3.5143E2,-2.0039797E-2,1.1328E3,1.0776E4,5.9543E3,2.1429E2,4.8857E2,2.1429E2,5.316496E-4,2.5758827E-3,4.8857E2,3.5143E2,6.5143E2,6.5143E2,4.686904E-3,3.2571E2,8.365E3,2.1626176E-3,-1.6008662E-3,3.5983996E-4,3.3101246E-3,4.351255E-3,3.0414357E-3,2.9494464E-3,4.5788568E-3,-5.177808E-3,-1.0358023E-2,-1.695323E-3,-4.922354E-3,-1.0149884E-2,1.7424823E-4,-2.7878286E-4,1.9189067E-3,3.052757E-3,4.7780164E-3],"split_indices":[0,6,5,6,5,0,0,4,2,2,2,2,5,0,2,0,5,5,5,2,1,2,0,0,1,2,1,1,0,1,5,0,0,0,0,0,0,0,0,0,0,0,0,0,0,0,0,0,0],"split_type":[0,0,0,0,0,0,0,0,0,0,0,0,0,0,0,0,0,0,0,0,0,0,0,0,0,0,0,0,0,0,0,0,0,0,0,0,0,0,0,0,0,0,0,0,0,0,0,0,0],"sum_hessian":[4.07E2,3.99E2,8E0,3.35E2,6.4E1,2E0,6E0,2.73E2,6.2E1,2.4E1,4E1,2.21E2,5.2E1,1.5E1,4.7E1,2E0,2.2E1,8E0,3.2E1,1.13E2,1.08E2,5E1,2E0,1.6E1,3.1E1,1.1E1,1.1E1,7E0,1E0,9E0,2.3E1,5.3E1,6E1,5.4E1,5.4E1,1.3E1,3.7E1,1.5E1,1.6E1,4E0,7E0,8E0,3E0,6E0,1E0,1E0,8E0,9E0,1.4E1],"tree_param":{"num_deleted":"0","num_feature":"7","num_nodes":"49","size_leaf_vector":"1"}},{"base_weights":[-6.40468E-3,1.12204105E-2,-7.8903043E-1,1.7387794E-2,-2.0832842E-2,-2.6267627E-1,1.1128773E-2,1.31522985E-2,3.5532847E-2,-7.506288E-2,1.27423685E-2,8.977581E-3,3.0390695E-2,2.2932233E-3,3.7757356E-2,-1.870381E-2,-5.719381E-2,-6.191447E-2,3.271719E-2,-4.673916E-3,1.3611061E-2,3.1290602E-2,4.962047E-4,2.7282587E-3,4.021772E-3,-8.285955E-2,-2.676191E-2,-9.860603E-2,8.601487E-3,1.5205431E-2,3.8650542E-2,-1.3576038E-3,7.2638417E-4,3.6256228E-4,2.3315588E-3,3.9472203E-3,2.7452891E-3,-4.7635892E-3,-9.45169E-3,-6.8306923E-4,-3.5873682E-3,-1.1898938E-2,1.6553402E-4,4.4525624E-3,-1.8215099E-3,2.013588E-3,2.7757883E-4,2.7780128E-3,4.332078E-3],"categories":[],"categories_nodes":[],"categories_segments":[],"categories_sizes":[],"default_left":[0,0,0,0,0,0,0,0,0,0,0,0,0,0,0,0,0,0,0,0,0,0,0,0,0,0,0,0,0,0,0,0,0,0,0,0,0,0,0,0,0,0,0,0,0,0,0,0,0],"id":11,"left_children":[1,3,5,7,9,-1,-1,11,13,15,17,19,21,-1,23,-1,25,27,29,31,33,35,-1,-1,-1,37,39,41,43,45,47,-1,-1,-1,-1,-1,-1,-1,-1,-1,-1,-1,-1,-1,-1,-1,-1,-1,-1],"loss_changes":[5.636744E0,7.943614E-2,1.518322E1,2.5355361E-2,1.1930749E-1,0E0,0E0,1.9445691E-2,9.0004504E-4,3.9324895E-2,6.316721E-2,1.41059905E-2,1.057554E-3,0E0,2.4288893E-4,0E0,1.574684E-2,2.4134222E-2,2.8411187E-3,6.1560823E-3,1.6001526E-2,5.177036E-4,0E0,0E0,0E0,4.2498857E-4,1.934262E-3,1.2458943E-2,4.6644895E-3,5.569442E-4,1.4960766E-5,0E0,0E0,0E0,0E0,0E0,0E0,0E0,0E0,0E0,0E0,0E0,0E0,0E0,0E0,0E0,0E0,0E0,0E0],"parents":[2147483647,0,0,1,1,2,2,3,3,4,4,7,7,8,8,9,9,10,10,11,11,12,12,14,14,16,16,17,17,18,18,19,19,20,20,21,21,25,25,26,26,27,27,28,28,29,29,30,30],"right_children":[2,4,6,8,10,-1,-1,12,14,16,18,20,22,-1,24,-1,26,28,30,32,34,36,-1,-1,-1,38,40,42,44,46,48,-1,-1,-1,-1,-1,-1,-1,-1,-1,-1,-1,-1,-1,-1,-1,-1,-1,-1],"split_conditions":[6.9643E3,1.6607E4,1.1328E3,1.1786E4,3.5435E3,-2.6267627E-1,1.1128773E-2,7E0,1.1328E3,2.1429E2,2.1429E2,3.2571E2,1.0776E4,2.2932233E-3,3.2571E2,-1.870381E-2,1.1328E3,8.365E3,5.9543E3,5E0,3.5143E2,2.1429E2,4.962047E-4,2.7282587E-3,4.021772E-3,3.5143E2,3.5143E2,6.5143E2,3.2571E2,6.5143E2,8.365E3,-1.3576038E-3,7.2638417E-4,3.6256228E-4,2.3315588E-3,3.9472203E-3,2.7452891E-3,-4.7635892E-3,-9.45169E-3,-6.8306923E-4,-3.5873682E-3,-1.1898938E-2,1.6553402E-4,4.4525624E-3,-1.8215099E-3,2.013588E-3,2.7757883E-4,2.7780128E-3,4.332078E-3],"split_indices":[0,6,5,6,5,0,0,4,5,2,2,1,5,0,1,0,5,5,5,4,2,2,0,0,0,2,2,1,1,1,5,0,0,0,0,0,0,0,0,0,0,0,0,0,0,0,0,0,0],"split_type":[0,0,0,0,0,0,0,0,0,0,0,0,0,0,0,0,0,0,0,0,0,0,0,0,0,0,0,0,0,0,0,0,0,0,0,0,0,0,0,0,0,0,0,0,0,0,0,0,0],"sum_hessian":[4.07E2,3.99E2,8E0,3.35E2,6.4E1,2E0,6E0,2.73E2,6.2E1,2.4E1,4E1,2.21E2,5.2E1,1.1E1,5.1E1,2E0,2.2E1,8E0,3.2E1,5.6E1,1.65E2,5E1,2E0,1.2E1,3.9E1,1.1E1,1.1E1,5E0,3E0,9E0,2.3E1,3.2E1,2.4E1,8.2E1,8.3E1,1.3E1,3.7E1,4E0,7E0,4E0,7E0,4E0,1E0,1E0,2E0,6E0,3E0,9E0,1.4E1],"tree_param":{"num_deleted":"0","num_feature":"7","num_nodes":"49","size_leaf_vector":"1"}},{"base_weights":[-6.4263525E-3,1.0051853E-2,-7.38077E-1,1.5703432E-2,-1.9317105E-2,-2.4516451E-1,1.01748876E-1,1.1870803E-2,3.2123063E-2,-6.904416E-2,1.1475418E-2,1.239903E-2,5.4070234E-2,-2.6850743E-2,1.3439236E-2,4.1004987E-3,2.849319E-2,-1.7456897E-2,-5.2278135E-2,-5.673435E-2,2.9730342E-2,6.177632E-3,1.5475989E-3,-2.614498E-4,-2.901292E-3,9.674058E-3,2.7902445E-2,2.0158642E-3,3.2030508E-2,-7.575824E-2,-2.444152E-2,-9.070095E-2,8.399129E-3,1.3913965E-2,3.5081734E-3,2.34792E-3,3.367117E-4,2.974442E-5,3.1346872E-3,2.3687228E-3,3.799886E-3,-5.8021927E-3,-1.0962653E-2,-1.3225477E-3,-4.356724E-3,-1.0947018E-2,1.572609E-4,4.229939E-3,-1.7000756E-3,-3.6553145E-4,1.6272254E-3],"categories":[],"categories_nodes":[],"categories_segments":[],"categories_sizes":[],"default_left":[0,0,0,0,0,0,0,0,0,0,0,0,0,0,0,0,0,0,0,0,0,0,0,0,0,0,0,0,0,0,0,0,0,0,0,0,0,0,0,0,0,0,0,0,0,0,0,0,0,0,0],"id":12,"left_children":[1,3,5,7,9,-1,11,13,15,17,19,-1,21,23,25,-1,27,-1,29,31,33,-1,-1,-1,-1,35,37,-1,39,41,43,45,47,49,-1,-1,-1,-1,-1,-1,-1,-1,-1,-1,-1,-1,-1,-1,-1,-1,-1],"loss_changes":[4.926385E0,6.669575E-2,1.3201342E1,2.0763256E-2,1.0032171E-1,0E0,7.188991E-4,1.7001465E-2,8.627698E-4,3.5104655E-2,5.273846E-2,0E0,2.335934E-4,5.0057843E-4,1.4106594E-2,0E0,7.694438E-4,0E0,1.3181306E-2,2.067307E-2,2.3049824E-3,0E0,0E0,0E0,0E0,1.8292343E-2,5.12518E-3,0E0,6.9336966E-4,8.476451E-4,1.9979817E-3,1.0563582E-2,4.1633723E-3,4.7381455E-4,0E0,0E0,0E0,0E0,0E0,0E0,0E0,0E0,0E0,0E0,0E0,0E0,0E0,0E0,0E0,0E0,0E0],"parents":[2147483647,0,0,1,1,2,2,3,3,4,4,6,6,7,7,8,8,9,9,10,10,12,12,13,13,14,14,16,16,18,18,19,19,20,20,25,25,26,26,28,28,29,29,30,30,31,31,32,32,33,33],"right_children":[2,4,6,8,10,-1,12,14,16,18,20,-1,22,24,26,-1,28,-1,30,32,34,-1,-1,-1,-1,36,38,-1,40,42,44,46,48,50,-1,-1,-1,-1,-1,-1,-1,-1,-1,-1,-1,-1,-1,-1,-1,-1,-1],"split_conditions":[6.9643E3,1.6607E4,1.1328E3,1.1786E4,3.5435E3,-2.4516451E-1,3.5435E3,1.1328E3,2.1429E2,2.1429E2,2.1429E2,1.239903E-2,2.1429E2,2.1429E2,4.8857E2,4.1004987E-3,3.5143E2,-1.7456897E-2,1.1328E3,8.365E3,5.9543E3,6.177632E-3,1.5475989E-3,-2.614498E-4,-2.901292E-3,2.1429E2,3.2571E2,2.0158642E-3,4.8857E2,6.5143E2,6.5143E2,6.5143E2,3.2571E2,3.2571E2,3.5081734E-3,2.34792E-3,3.367117E-4,2.974442E-5,3.1346872E-3,2.3687228E-3,3.799886E-3,-5.8021927E-3,-1.0962653E-2,-1.3225477E-3,-4.356724E-3,-1.0947018E-2,1.572609E-4,4.229939E-3,-1.7000756E-3,-3.6553145E-4,1.6272254E-3],"split_indices":[0,6,5,6,5,0,5,5,2,2,2,0,2,2,2,0,2,0,5,5,5,0,0,0,0,2,1,0,1,1,1,1,1,1,0,0,0,0,0,0,0,0,0,0,0,0,0,0,0,0,0],"split_type":[0,0,0,0,0,0,0,0,0,0,0,0,0,0,0,0,0,0,0,0,0,0,0,0,0,0,0,0,0,0,0,0,0,0,0,0,0,0,0,0,0,0,0,0,0,0,0,0,0,0,0],"sum_hessian":[4.07E2,3.99E2,8E0,3.35E2,6.4E1,2E0,6E0,2.73E2,6.2E1,2.4E1,4E1,3E0,3E0,1E1,2.63E2,1.5E1,4.7E1,2E0,2.2E1,8E0,3.2E1,2E0,1E0,1E0,9E0,2.1E2,5.3E1,1.6E1,3.1E1,1.1E1,1.1E1,5E0,3E0,9E0,2.3E1,6.5E1,1.45E2,6E0,4.7E1,1.5E1,1.6E1,9E0,2E0,8E0,3E0,4E0,1E0,1E0,2E0,1E0,8E0],"tree_param":{"num_deleted":"0","num_feature":"7","num_nodes":"51","size_leaf_vector":"1"}},{"base_weights":[-6.404925E-3,8.975635E-3,-6.892737E-1,1.4177662E-2,-1.805293E-2,-2.288202E-1,9.444891E-2,1.0693548E-2,2.910575E-2,-6.373581E-2,1.0242799E-2,1.1469108E-2,5.059451E-2,2.1119486E-3,1.7567517E-2,1.8100679E-3,3.1085657E-2,-1.6293097E-2,-4.802619E-2,-5.1978692E-2,2.690191E-2,5.765788E-3,1.4702202E-3,1.201263E-2,-9.190757E-3,1.1053183E-2,2.5040692E-2,3.8472943E-3,2.7636742E-2,-6.9579504E-2,-2.2470692E-2,-8.342918E-2,8.191705E-3,1.8300708E-2,3.6003303E-3,-2.4453164E-3,1.8961042E-3,-1.65094E-3,1.4989938E-3,4.272322E-4,2.3532293E-3,1.3201655E-3,5.027124E-3,1.9394364E-3,3.1011996E-3,-5.2799988E-3,-1.0231805E-2,-1.2049914E-3,-4.0299776E-3,-1.0071258E-2,1.4939309E-4,4.018438E-3,-1.5867314E-3,2.2181E-3,6.1965786E-4],"categories":[],"categories_nodes":[],"categories_segments":[],"categories_sizes":[],"default_left":[0,0,0,0,0,0,0,0,0,0,0,0,0,0,0,0,0,0,0,0,0,0,0,0,0,0,0,0,0,0,0,0,0,0,0,0,0,0,0,0,0,0,0,0,0,0,0,0,0,0,0,0,0,0,0],"id":13,"left_children":[1,3,5,7,9,-1,11,13,15,17,19,-1,21,23,25,-1,27,-1,29,31,33,-1,-1,35,37,39,41,-1,43,45,47,49,51,53,-1,-1,-1,-1,-1,-1,-1,-1,-1,-1,-1,-1,-1,-1,-1,-1,-1,-1,-1,-1,-1],"loss_changes":[4.291372E0,5.6497283E-2,1.14941635E1,1.7164499E-2,8.467381E-2,0E0,4.112199E-4,1.6126063E-2,8.100383E-4,3.1133004E-2,4.389707E-2,0E0,1.663845E-4,1.3874656E-2,7.123001E-3,0E0,2.6159734E-4,0E0,1.1105023E-2,1.7714916E-2,1.9244496E-3,0E0,0E0,1.7186696E-2,1.051173E-2,6.9228476E-3,2.0245712E-2,0E0,4.8352592E-4,1.1896528E-3,1.7439062E-3,8.957025E-3,3.7164674E-3,7.5493706E-4,0E0,0E0,0E0,0E0,0E0,0E0,0E0,0E0,0E0,0E0,0E0,0E0,0E0,0E0,0E0,0E0,0E0,0E0,0E0,0E0,0E0],"parents":[2147483647,0,0,1,1,2,2,3,3,4,4,6,6,7,7,8,8,9,9,10,10,12,12,13,13,14,14,16,16,18,18,19,19,20,20,23,23,24,24,25,25,26,26,28,28,29,29,30,30,31,31,32,32,33,33],"right_children":[2,4,6,8,10,-1,12,14,16,18,20,-1,22,24,26,-1,28,-1,30,32,34,-1,-1,36,38,40,42,-1,44,46,48,50,52,54,-1,-1,-1,-1,-1,-1,-1,-1,-1,-1,-1,-1,-1,-1,-1,-1,-1,-1,-1,-1,-1],"split_conditions":[6.9643E3,1.6607E4,1.1328E3,1.1786E4,3.5435E3,-2.288202E-1,3.5435E3,5E0,1.1328E3,2.1429E2,2.1429E2,1.1469108E-2,2.1429E2,6.9643E3,3.5143E2,1.8100679E-3,2.1429E2,-1.6293097E-2,1.1328E3,8.365E3,8.365E3,5.765788E-3,1.4702202E-3,1.1328E3,4.8857E2,7E0,6.9643E3,3.8472943E-3,3.5143E2,6.5143E2,6.5143E2,6.5143E2,3.2571E2,6.5143E2,3.6003303E-3,-2.4453164E-3,1.8961042E-3,-1.65094E-3,1.4989938E-3,4.272322E-4,2.3532293E-3,1.3201655E-3,5.027124E-3,1.9394364E-3,3.1011996E-3,-5.2799988E-3,-1.0231805E-2,-1.2049914E-3,-4.0299776E-3,-1.0071258E-2,1.4939309E-4,4.018438E-3,-1.5867314E-3,2.2181E-3,6.1965786E-4],"split_indices":[0,6,5,6,5,0,5,4,5,2,2,0,2,6,2,0,2,0,5,5,5,0,0,5,2,4,6,0,2,1,1,1,1,1,0,0,0,0,0,0,0,0,0,0,0,0,0,0,0,0,0,0,0,0,0],"split_type":[0,0,0,0,0,0,0,0,0,0,0,0,0,0,0,0,0,0,0,0,0,0,0,0,0,0,0,0,0,0,0,0,0,0,0,0,0,0,0,0,0,0,0,0,0,0,0,0,0,0,0,0,0,0,0],"sum_hessian":[4.07E2,3.99E2,8E0,3.35E2,6.4E1,2E0,6E0,2.73E2,6.2E1,2.4E1,4E1,3E0,3E0,1.22E2,1.51E2,1.1E1,5.1E1,2E0,2.2E1,8E0,3.2E1,2E0,1E0,6.5E1,5.7E1,8.2E1,6.9E1,1.3E1,3.8E1,1.1E1,1.1E1,5E0,3E0,1.8E1,1.4E1,1E1,5.5E1,4.4E1,1.3E1,5.4E1,2.8E1,4.8E1,2.1E1,1.3E1,2.5E1,9E0,2E0,8E0,3E0,4E0,1E0,1E0,2E0,1.3E1,5E0],"tree_param":{"num_deleted":"0","num_feature":"7","num_nodes":"55","size_leaf_vector":"1"}},{"base_weights":[-6.325892E-3,8.03067E-3,-6.4369243E-1,1.2816833E-2,-1.6833661E-2,-2.1356551E-1,8.767618E-2,9.65497E-3,2.6364986E-2,-5.8843832E-2,9.192874E-3,1.0608924E-2,4.734409E-2,6.103823E-3,2.4347417E-2,1.6441444E-3,2.8148014E-2,-1.5206893E-2,-4.412561E-2,-4.761309E-2,2.4406837E-2,5.3814095E-3,1.3967038E-3,-5.6020124E-3,1.0086526E-2,1.8226217E-2,2.9566862E-2,1.9609286E-3,3.02194E-2,-6.39142E-2,-2.0659884E-2,-7.673991E-2,7.980406E-3,1.1132049E-2,2.8921047E-2,-1.2914794E-3,4.2749406E-4,1.9946988E-4,1.7961946E-3,3.0248235E-3,1.3350964E-3,2.0165953E-3,3.8139694E-3,3.3482926E-3,2.3231432E-3,-3.2936812E-3,-7.5285793E-3,-3.0904295E-4,-2.9058307E-3,-9.265556E-3,1.4191866E-4,3.8175106E-3,-1.480953E-3,1.965499E-3,4.6715056E-4,2.0446063E-3,3.2642968E-3],"categories":[],"categories_nodes":[],"categories_segments":[],"categories_sizes":[],"default_left":[0,0,0,0,0,0,0,0,0,0,0,0,0,0,0,0,0,0,0,0,0,0,0,0,0,0,0,0,0,0,0,0,0,0,0,0,0,0,0,0,0,0,0,0,0,0,0,0,0,0,0,0,0,0,0,0,0],"id":14,"left_children":[1,3,5,7,9,-1,11,13,15,17,19,-1,21,23,25,-1,27,-1,29,31,33,-1,-1,35,37,39,41,-1,43,45,47,49,51,53,55,-1,-1,-1,-1,-1,-1,-1,-1,-1,-1,-1,-1,-1,-1,-1,-1,-1,-1,-1,-1,-1,-1],"loss_changes":[3.7385292E0,4.7817655E-2,1.0007818E1,1.4138814E-2,7.1610585E-2,0E0,1.757592E-4,1.4147352E-2,6.519258E-4,2.759257E-2,3.6596086E-2,0E0,1.1217501E-4,1.0406338E-2,1.154419E-3,0E0,3.2714382E-4,0E0,9.359673E-3,1.518577E-2,1.6555805E-3,0E0,0E0,4.172207E-3,1.0542776E-2,1.1786371E-3,1.4068726E-3,0E0,1.3436005E-4,1.7474703E-3,1.6808659E-3,7.595215E-3,3.3178963E-3,4.588099E-4,8.9617446E-5,0E0,0E0,0E0,0E0,0E0,0E0,0E0,0E0,0E0,0E0,0E0,0E0,0E0,0E0,0E0,0E0,0E0,0E0,0E0,0E0,0E0,0E0],"parents":[2147483647,0,0,1,1,2,2,3,3,4,4,6,6,7,7,8,8,9,9,10,10,12,12,13,13,14,14,16,16,18,18,19,19,20,20,23,23,24,24,25,25,26,26,28,28,29,29,30,30,31,31,32,32,33,33,34,34],"right_children":[2,4,6,8,10,-1,12,14,16,18,20,-1,22,24,26,-1,28,-1,30,32,34,-1,-1,36,38,40,42,-1,44,46,48,50,52,54,56,-1,-1,-1,-1,-1,-1,-1,-1,-1,-1,-1,-1,-1,-1,-1,-1,-1,-1,-1,-1,-1,-1],"split_conditions":[6.9643E3,1.6607E4,1.1328E3,1.1786E4,3.5435E3,-2.1356551E-1,3.5435E3,7E0,1.1328E3,2.1429E2,2.1429E2,1.0608924E-2,2.1429E2,3.2571E2,4.8857E2,1.6441444E-3,3.2571E2,-1.5206893E-2,1.1328E3,8.365E3,5.9543E3,5.3814095E-3,1.3967038E-3,5E0,3.5143E2,2.1429E2,3.5143E2,1.9609286E-3,6.5143E2,3.5143E2,3.5143E2,6.5143E2,3.2571E2,3.5143E2,8.365E3,-1.2914794E-3,4.2749406E-4,1.9946988E-4,1.7961946E-3,3.0248235E-3,1.3350964E-3,2.0165953E-3,3.8139694E-3,3.3482926E-3,2.3231432E-3,-3.2936812E-3,-7.5285793E-3,-3.0904295E-4,-2.9058307E-3,-9.265556E-3,1.4191866E-4,3.8175106E-3,-1.480953E-3,1.965499E-3,4.6715056E-4,2.0446063E-3,3.2642968E-3],"split_indices":[0,6,5,6,5,0,5,4,5,2,2,0,2,1,1,0,1,0,5,5,5,0,0,4,2,2,2,0,1,2,2,1,1,2,5,0,0,0,0,0,0,0,0,0,0,0,0,0,0,0,0,0,0,0,0,0,0],"split_type":[0,0,0,0,0,0,0,0,0,0,0,0,0,0,0,0,0,0,0,0,0,0,0,0,0,0,0,0,0,0,0,0,0,0,0,0,0,0,0,0,0,0,0,0,0,0,0,0,0,0,0,0,0,0,0,0,0],"sum_hessian":[4.07E2,3.99E2,8E0,3.35E2,6.4E1,2E0,6E0,2.73E2,6.2E1,2.4E1,4E1,3E0,3E0,2.21E2,5.2E1,1.1E1,5.1E1,2E0,2.2E1,8E0,3.2E1,2E0,1E0,5.6E1,1.65E2,2.6E1,2.6E1,1.2E1,3.9E1,1.1E1,1.1E1,5E0,3E0,9E0,2.3E1,3.2E1,2.4E1,8.2E1,8.3E1,6E0,2E1,1.4E1,1.2E1,2.4E1,1.5E1,4E0,7E0,4E0,7E0,4E0,1E0,1E0,2E0,3E0,6E0,9E0,1.4E1],"tree_param":{"num_deleted":"0","num_feature":"7","num_nodes":"57","size_leaf_vector":"1"}},{"base_weights":[-6.1930083E-3,7.2083487E-3,-6.0112077E-1,1.1596418E-2,-1.5585492E-2,-1.9932781E-1,8.139246E-3,2.227963E-2,8.115556E-3,-5.412922E-2,8.296914E-3,3.0442458E-2,1.4891471E-2,-5.6071253E-3,1.576416E-2,-1.41931055E-2,-4.032336E-2,-4.360583E-2,2.2200787E-2,3.180413E-2,3.9548874E-3,5.591154E-3,3.139885E-3,-9.958478E-3,1.4175808E-2,4.7061415E-3,2.6499022E-2,-5.8424633E-2,-1.886181E-2,-7.058644E-2,7.766545E-3,1.0262156E-2,2.6250184E-2,-1.3608932E-4,3.2790587E-3,6.8734883E-4,-9.4115734E-5,-1.1836832E-4,9.0377574E-4,-2.4568492E-3,6.521649E-5,7.139981E-4,1.5173487E-3,-3.495877E-4,1.5820162E-3,3.7665039E-3,1.4702076E-3,-4.2542717E-3,-9.188946E-3,-9.261476E-4,-3.574711E-3,-8.524303E-3,1.348257E-4,3.6266327E-3,-1.3822158E-3,1.4570168E-3,1.5759468E-5,1.8605853E-3,2.9596393E-3],"categories":[],"categories_nodes":[],"categories_segments":[],"categories_sizes":[],"default_left":[0,0,0,0,0,0,0,0,0,0,0,0,0,0,0,0,0,0,0,0,0,0,0,0,0,0,0,0,0,0,0,0,0,0,0,0,0,0,0,0,0,0,0,0,0,0,0,0,0,0,0,0,0,0,0,0,0,0,0],"id":15,"left_children":[1,3,5,7,9,-1,-1,11,13,15,17,19,21,23,25,-1,27,29,31,33,35,37,-1,39,41,43,45,47,49,51,53,55,57,-1,-1,-1,-1,-1,-1,-1,-1,-1,-1,-1,-1,-1,-1,-1,-1,-1,-1,-1,-1,-1,-1,-1,-1,-1,-1],"loss_changes":[3.2572515E0,4.0189117E-2,8.71373E0,1.2313947E-2,6.028271E-2,0E0,0E0,4.491944E-3,2.685303E-2,2.458135E-2,3.0555697E-2,1.2447834E-3,6.733017E-3,8.06076E-3,1.9343127E-2,0E0,7.8330785E-3,1.3022736E-2,1.325978E-3,1.2223907E-3,4.9337843E-5,7.112032E-4,0E0,1.1797665E-2,1.0992866E-5,7.530213E-3,1.0379408E-2,2.4685971E-3,1.6141832E-3,6.440835E-3,2.9623723E-3,4.3300947E-4,6.324239E-5,0E0,0E0,0E0,0E0,0E0,0E0,0E0,0E0,0E0,0E0,0E0,0E0,0E0,0E0,0E0,0E0,0E0,0E0,0E0,0E0,0E0,0E0,0E0,0E0,0E0,0E0],"parents":[2147483647,0,0,1,1,2,2,3,3,4,4,7,7,8,8,9,9,10,10,11,11,12,12,13,13,14,14,16,16,17,17,18,18,19,19,20,20,21,21,23,23,24,24,25,25,26,26,27,27,28,28,29,29,30,30,31,31,32,32],"right_children":[2,4,6,8,10,-1,-1,12,14,16,18,20,22,24,26,-1,28,30,32,34,36,38,-1,40,42,44,46,48,50,52,54,56,58,-1,-1,-1,-1,-1,-1,-1,-1,-1,-1,-1,-1,-1,-1,-1,-1,-1,-1,-1,-1,-1,-1,-1,-1,-1,-1],"split_conditions":[6.9643E3,1.6607E4,1.1328E3,2.1429E2,3.5435E3,-1.9932781E-1,8.139246E-3,6.9643E3,3.5143E2,2.1429E2,2.1429E2,1.0776E4,1.1786E4,1.1786E4,4.8857E2,-1.41931055E-2,1.1328E3,8.365E3,5.9543E3,1.1328E3,5E0,3.2571E2,3.139885E-3,5E0,1.1328E3,4.8857E2,6.5143E2,6.5143E2,6.5143E2,6.5143E2,3.2571E2,6.5143E2,8.365E3,-1.3608932E-4,3.2790587E-3,6.8734883E-4,-9.4115734E-5,-1.1836832E-4,9.0377574E-4,-2.4568492E-3,6.521649E-5,7.139981E-4,1.5173487E-3,-3.495877E-4,1.5820162E-3,3.7665039E-3,1.4702076E-3,-4.2542717E-3,-9.188946E-3,-9.261476E-4,-3.574711E-3,-8.524303E-3,1.348257E-4,3.6266327E-3,-1.3822158E-3,1.4570168E-3,1.5759468E-5,1.8605853E-3,2.9596393E-3],"split_indices":[0,6,5,2,5,0,0,6,2,2,2,5,6,6,1,0,5,5,5,5,4,1,0,4,5,2,1,1,1,1,1,1,5,0,0,0,0,0,0,0,0,0,0,0,0,0,0,0,0,0,0,0,0,0,0,0,0,0,0],"split_type":[0,0,0,0,0,0,0,0,0,0,0,0,0,0,0,0,0,0,0,0,0,0,0,0,0,0,0,0,0,0,0,0,0,0,0,0,0,0,0,0,0,0,0,0,0,0,0,0,0,0,0,0,0,0,0,0,0,0,0],"sum_hessian":[4.07E2,3.99E2,8E0,3.35E2,6.4E1,2E0,6E0,8.1E1,2.54E2,2.4E1,4E1,3.7E1,4.4E1,9.1E1,1.63E2,2E0,2.2E1,8E0,3.2E1,3.5E1,2E0,2.9E1,1.5E1,7.5E1,1.6E1,8.1E1,8.2E1,1.1E1,1.1E1,5E0,3E0,9E0,2.3E1,1E0,3.4E1,1E0,1E0,1E1,1.9E1,3.1E1,4.4E1,3E0,1.3E1,4.7E1,3.4E1,4.1E1,4.1E1,9E0,2E0,8E0,3E0,4E0,1E0,1E0,2E0,6E0,3E0,9E0,1.4E1],"tree_param":{"num_deleted":"0","num_feature":"7","num_nodes":"59","size_leaf_vector":"1"}},{"base_weights":[-6.0864673E-3,6.4424686E-3,-5.622518E-1,1.0478357E-2,-1.4519082E-2,-1.860393E-1,7.441606E-2,7.8072757E-3,2.1929117E-2,-5.0001744E-2,7.4708113E-3,9.20282E-3,3.81999E-2,4.7038645E-3,2.0659164E-2,2.8455125E-3,1.9296924E-2,-1.3246901E-2,-3.7071157E-2,-3.9927986E-2,2.0171368E-2,4.4800444E-3,9.199143E-4,-2.304942E-2,6.1217053E-3,1.5757764E-2,2.479541E-2,1.2889512E-2,2.2097833E-2,-5.3702395E-2,-1.7350653E-2,-6.492595E-2,7.550955E-3,9.383249E-3,2.3825943E-2,-1.2928247E-4,-2.5095798E-3,2.6050975E-5,1.1763407E-3,2.4844988E-3,1.197832E-3,1.6723173E-3,3.220219E-3,9.82219E-4,1.6875903E-3,1.5535906E-3,2.6973893E-3,-3.8713813E-3,-8.576354E-3,-1.5725613E-4,-2.5043131E-3,-7.84235E-3,1.2809038E-4,3.4453035E-3,-1.290075E-3,1.7448425E-3,3.4341132E-4,1.6931295E-3,2.683398E-3],"categories":[],"categories_nodes":[],"categories_segments":[],"categories_sizes":[],"default_left":[0,0,0,0,0,0,0,0,0,0,0,0,0,0,0,0,0,0,0,0,0,0,0,0,0,0,0,0,0,0,0,0,0,0,0,0,0,0,0,0,0,0,0,0,0,0,0,0,0,0,0,0,0,0,0,0,0,0,0],"id":16,"left_children":[1,3,5,7,9,-1,11,13,15,17,19,-1,21,23,25,-1,27,-1,29,31,33,-1,-1,35,37,39,41,43,45,47,49,51,53,55,57,-1,-1,-1,-1,-1,-1,-1,-1,-1,-1,-1,-1,-1,-1,-1,-1,-1,-1,-1,-1,-1,-1,-1,-1],"loss_changes":[2.8466318E0,3.3991523E-2,7.5768056E0,1.0105658E-2,5.1090457E-2,0E0,9.494424E-4,1.08312275E-2,5.3309835E-4,2.1747977E-2,2.548704E-2,0E0,3.535566E-4,8.876745E-3,6.837696E-4,0E0,5.76606E-4,0E0,6.6116825E-3,1.1172142E-2,1.0774927E-3,0E0,0E0,4.5729987E-4,7.007164E-3,6.2970445E-4,1.0757875E-3,4.210975E-5,6.048195E-4,2.4463795E-3,1.4170895E-3,5.462235E-3,2.6452437E-3,4.1988853E-4,4.3410808E-5,0E0,0E0,0E0,0E0,0E0,0E0,0E0,0E0,0E0,0E0,0E0,0E0,0E0,0E0,0E0,0E0,0E0,0E0,0E0,0E0,0E0,0E0,0E0,0E0],"parents":[2147483647,0,0,1,1,2,2,3,3,4,4,6,6,7,7,8,8,9,9,10,10,12,12,13,13,14,14,16,16,18,18,19,19,20,20,23,23,24,24,25,25,26,26,27,27,28,28,29,29,30,30,31,31,32,32,33,33,34,34],"right_children":[2,4,6,8,10,-1,12,14,16,18,20,-1,22,24,26,-1,28,-1,30,32,34,-1,-1,36,38,40,42,44,46,48,50,52,54,56,58,-1,-1,-1,-1,-1,-1,-1,-1,-1,-1,-1,-1,-1,-1,-1,-1,-1,-1,-1,-1,-1,-1,-1,-1],"split_conditions":[6.9643E3,1.6607E4,1.1328E3,1.1786E4,3.5435E3,-1.860393E-1,3.5435E3,7E0,2.1429E2,2.1429E2,2.1429E2,9.20282E-3,2.1429E2,1.1328E3,4.8857E2,2.8455125E-3,3.5143E2,-1.3246901E-2,1.1328E3,8.365E3,5.9543E3,4.4800444E-3,9.199143E-4,2.1429E2,4.8857E2,2.1429E2,3.5143E2,6.5143E2,4.8857E2,6.5143E2,3.5143E2,6.5143E2,3.2571E2,3.5143E2,8.365E3,-1.2928247E-4,-2.5095798E-3,2.6050975E-5,1.1763407E-3,2.4844988E-3,1.197832E-3,1.6723173E-3,3.220219E-3,9.82219E-4,1.6875903E-3,1.5535906E-3,2.6973893E-3,-3.8713813E-3,-8.576354E-3,-1.5725613E-4,-2.5043131E-3,-7.84235E-3,1.2809038E-4,3.4453035E-3,-1.290075E-3,1.7448425E-3,3.4341132E-4,1.6931295E-3,2.683398E-3],"split_indices":[0,6,5,6,5,0,5,4,2,2,2,0,2,5,1,0,2,0,5,5,5,0,0,2,1,2,2,1,1,1,2,1,1,2,5,0,0,0,0,0,0,0,0,0,0,0,0,0,0,0,0,0,0,0,0,0,0,0,0],"split_type":[0,0,0,0,0,0,0,0,0,0,0,0,0,0,0,0,0,0,0,0,0,0,0,0,0,0,0,0,0,0,0,0,0,0,0,0,0,0,0,0,0,0,0,0,0,0,0,0,0,0,0,0,0,0,0,0,0,0,0],"sum_hessian":[4.07E2,3.99E2,8E0,3.35E2,6.4E1,2E0,6E0,2.73E2,6.2E1,2.4E1,4E1,3E0,3E0,2.21E2,5.2E1,1.5E1,4.7E1,2E0,2.2E1,8E0,3.2E1,2E0,1E0,1E1,2.11E2,2.6E1,2.6E1,1.6E1,3.1E1,1.1E1,1.1E1,5E0,3E0,9E0,2.3E1,1E0,9E0,1.04E2,1.07E2,6E0,2E1,1.4E1,1.2E1,1.1E1,5E0,1.5E1,1.6E1,9E0,2E0,4E0,7E0,4E0,1E0,1E0,2E0,3E0,6E0,9E0,1.4E1],"tree_param":{"num_deleted":"0","num_feature":"7","num_nodes":"59","size_leaf_vector":"1"}},{"base_weights":[-5.9238398E-3,5.7718735E-3,-5.2507514E-1,9.480842E-3,-1.3489441E-2,-1.7363667E-1,6.90606E-2,1.8906333E-2,6.4127212E-3,-4.613576E-2,6.745862E-3,8.512616E-3,3.5729885E-2,2.6420662E-2,1.21407565E-2,-5.785623E-3,1.3216593E-2,-1.2363768E-2,-3.4020912E-2,-3.655288E-2,1.835019E-2,4.181369E-3,8.739233E-4,3.57551E-2,2.0737262E-2,4.4578314E-3,2.5787444E-3,-9.633635E-3,1.1757584E-2,3.8667424E-3,2.2294559E-2,-4.9369413E-2,-1.5837332E-2,-5.9719086E-2,7.3346496E-3,8.653832E-3,2.1625748E-2,-1.2282134E-4,3.8939398E-3,2.163932E-3,-9.070635E-5,-3.6520275E-4,6.637464E-4,-2.2479116E-3,-2.849897E-5,8.9217623E-4,1.546963E-3,-3.505096E-4,1.3866214E-3,3.238208E-3,1.1676215E-3,-3.5229516E-3,-8.004594E-3,-6.99438E-4,-3.177464E-3,-7.2149658E-3,1.2168884E-4,3.2730342E-3,-1.2040695E-3,-5.7152513E-4,1.0885424E-3,1.5407586E-3,2.4329473E-3],"categories":[],"categories_nodes":[],"categories_segments":[],"categories_sizes":[],"default_left":[0,0,0,0,0,0,0,0,0,0,0,0,0,0,0,0,0,0,0,0,0,0,0,0,0,0,0,0,0,0,0,0,0,0,0,0,0,0,0,0,0,0,0,0,0,0,0,0,0,0,0,0,0,0,0,0,0,0,0,0,0,0,0],"id":17,"left_children":[1,3,5,7,9,-1,11,13,15,17,19,-1,21,23,25,27,29,-1,31,33,35,-1,-1,37,39,41,-1,43,45,47,49,51,53,55,57,59,61,-1,-1,-1,-1,-1,-1,-1,-1,-1,-1,-1,-1,-1,-1,-1,-1,-1,-1,-1,-1,-1,-1,-1,-1,-1,-1],"loss_changes":[2.4803433E0,2.8703734E-2,6.596959E0,9.595392E-3,4.325076E-2,0E0,7.0678815E-4,3.8480125E-3,2.124044E-2,1.9266829E-2,2.1271316E-2,0E0,2.9140385E-4,1.2744889E-3,4.6031345E-3,6.3238647E-3,1.3833722E-2,0E0,5.637208E-3,9.588385E-3,8.609658E-4,0E0,0E0,1.5787799E-3,5.2726176E-4,5.545356E-4,0E0,9.120271E-3,4.093768E-5,6.09319E-3,8.512262E-3,2.3851749E-3,1.46895E-3,4.6326146E-3,2.3622971E-3,3.828723E-4,2.8634444E-5,0E0,0E0,0E0,0E0,0E0,0E0,0E0,0E0,0E0,0E0,0E0,0E0,0E0,0E0,0E0,0E0,0E0,0E0,0E0,0E0,0E0,0E0,0E0,0E0,0E0,0E0],"parents":[2147483647,0,0,1,1,2,2,3,3,4,4,6,6,7,7,8,8,9,9,10,10,12,12,13,13,14,14,15,15,16,16,18,18,19,19,20,20,23,23,24,24,25,25,27,27,28,28,29,29,30,30,31,31,32,32,33,33,34,34,35,35,36,36],"right_children":[2,4,6,8,10,-1,12,14,16,18,20,-1,22,24,26,28,30,-1,32,34,36,-1,-1,38,40,42,-1,44,46,48,50,52,54,56,58,60,62,-1,-1,-1,-1,-1,-1,-1,-1,-1,-1,-1,-1,-1,-1,-1,-1,-1,-1,-1,-1,-1,-1,-1,-1,-1,-1],"split_conditions":[6.9643E3,1.6607E4,1.1328E3,2.1429E2,3.5435E3,-1.7363667E-1,3.5435E3,6.9643E3,3.5143E2,2.1429E2,2.1429E2,8.512616E-3,2.1429E2,5E0,1.1786E4,1.1786E4,4.8857E2,-1.2363768E-2,1.1328E3,8.365E3,5.9543E3,4.181369E-3,8.739233E-4,1.1328E3,1.0776E4,3.5435E3,2.5787444E-3,5E0,6.5143E2,4.8857E2,6.5143E2,6.5143E2,6.5143E2,6.5143E2,3.2571E2,3.2571E2,8.365E3,-1.2282134E-4,3.8939398E-3,2.163932E-3,-9.070635E-5,-3.6520275E-4,6.637464E-4,-2.2479116E-3,-2.849897E-5,8.9217623E-4,1.546963E-3,-3.505096E-4,1.3866214E-3,3.238208E-3,1.1676215E-3,-3.5229516E-3,-8.004594E-3,-6.99438E-4,-3.177464E-3,-7.2149658E-3,1.2168884E-4,3.2730342E-3,-1.2040695E-3,-5.7152513E-4,1.0885424E-3,1.5407586E-3,2.4329473E-3],"split_indices":[0,6,5,2,5,0,5,6,2,2,2,0,2,4,6,6,1,0,5,5,5,0,0,5,5,5,0,4,1,2,1,1,1,1,1,1,5,0,0,0,0,0,0,0,0,0,0,0,0,0,0,0,0,0,0,0,0,0,0,0,0,0,0],"split_type":[0,0,0,0,0,0,0,0,0,0,0,0,0,0,0,0,0,0,0,0,0,0,0,0,0,0,0,0,0,0,0,0,0,0,0,0,0,0,0,0,0,0,0,0,0,0,0,0,0,0,0,0,0,0,0,0,0,0,0,0,0,0,0],"sum_hessian":[4.07E2,3.99E2,8E0,3.35E2,6.4E1,2E0,6E0,8.1E1,2.54E2,2.4E1,4E1,3E0,3E0,3.7E1,4.4E1,9.1E1,1.63E2,2E0,2.2E1,8E0,3.2E1,2E0,1E0,1.2E1,2.5E1,2.9E1,1.5E1,7.5E1,1.6E1,8.1E1,8.2E1,1.1E1,1.1E1,5E0,3E0,9E0,2.3E1,1E0,1.1E1,2.4E1,1E0,6E0,2.3E1,3.1E1,4.4E1,1.1E1,5E0,4.7E1,3.4E1,4.1E1,4.1E1,9E0,2E0,8E0,3E0,4E0,1E0,1E0,2E0,1E0,8E0,9E0,1.4E1],"tree_param":{"num_deleted":"0","num_feature":"7","num_nodes":"63","size_leaf_vector":"1"}},{"base_weights":[-5.7580234E-3,5.159759E-3,-4.90353E-1,8.575414E-3,-1.2575931E-2,-1.620609E-1,6.409284E-2,1.7122086E-2,5.7934434E-3,-4.2632923E-2,6.0582333E-3,7.874179E-3,3.3420682E-2,2.3932444E-2,1.0990625E-2,-5.2052657E-3,1.1928125E-2,-1.1539523E-2,-3.1288583E-2,-3.3455823E-2,1.6651211E-2,3.9026102E-3,8.3022116E-4,3.246975E-2,1.8743314E-2,4.022002E-3,2.336988E-3,-8.700201E-3,1.0725344E-2,3.4926753E-3,2.0118231E-2,-2.0996809E-2,-5.694914E-2,-4.541126E-2,3.1093836E-3,7.840085E-3,1.9628713E-2,-1.1668205E-4,3.5370034E-3,1.9561988E-3,-8.61764E-5,-1.5161255E-4,6.8668724E-4,-2.0301552E-3,-2.5701524E-5,8.103947E-4,1.4180582E-3,-4.5133452E-4,1.2435553E-3,2.922098E-3,1.0536478E-3,2.436386E-3,-4.5707463E-3,-8.776586E-3,-1.9599318E-3,-5.2228896E-3,1.1560917E-4,1.1930704E-3,-1.2785196E-4,1.4020992E-3,2.2058615E-3],"categories":[],"categories_nodes":[],"categories_segments":[],"categories_sizes":[],"default_left":[0,0,0,0,0,0,0,0,0,0,0,0,0,0,0,0,0,0,0,0,0,0,0,0,0,0,0,0,0,0,0,0,0,0,0,0,0,0,0,0,0,0,0,0,0,0,0,0,0,0,0,0,0,0,0,0,0,0,0,0,0],"id":18,"left_children":[1,3,5,7,9,-1,11,13,15,17,19,-1,21,23,25,27,29,-1,31,33,35,-1,-1,37,39,41,-1,43,45,47,49,51,53,55,-1,57,59,-1,-1,-1,-1,-1,-1,-1,-1,-1,-1,-1,-1,-1,-1,-1,-1,-1,-1,-1,-1,-1,-1,-1,-1],"loss_changes":[2.1611366E0,2.4339441E-2,5.743861E0,7.88974E-3,3.666393E-2,0E0,5.136002E-4,3.1610765E-3,1.7267853E-2,1.7025456E-2,1.7718513E-2,0E0,2.391953E-4,1.0748561E-3,3.7879925E-3,5.215546E-3,1.1260036E-2,0E0,4.8783794E-3,8.357484E-3,7.1186945E-4,0E0,0E0,1.3094926E-3,4.341621E-4,4.8306872E-4,0E0,7.439161E-3,3.9059436E-5,5.927068E-3,6.931402E-3,2.1289662E-2,5.1858407E-3,2.6002154E-3,0E0,3.8826105E-4,1.774542E-5,0E0,0E0,0E0,0E0,0E0,0E0,0E0,0E0,0E0,0E0,0E0,0E0,0E0,0E0,0E0,0E0,0E0,0E0,0E0,0E0,0E0,0E0,0E0,0E0],"parents":[2147483647,0,0,1,1,2,2,3,3,4,4,6,6,7,7,8,8,9,9,10,10,12,12,13,13,14,14,15,15,16,16,18,18,19,19,20,20,23,23,24,24,25,25,27,27,28,28,29,29,30,30,31,31,32,32,33,33,35,35,36,36],"right_children":[2,4,6,8,10,-1,12,14,16,18,20,-1,22,24,26,28,30,-1,32,34,36,-1,-1,38,40,42,-1,44,46,48,50,52,54,56,-1,58,60,-1,-1,-1,-1,-1,-1,-1,-1,-1,-1,-1,-1,-1,-1,-1,-1,-1,-1,-1,-1,-1,-1,-1,-1],"split_conditions":[6.9643E3,1.6607E4,1.1328E3,2.1429E2,3.5435E3,-1.620609E-1,3.5435E3,6.9643E3,3.5143E2,2.1429E2,2.1429E2,7.874179E-3,2.1429E2,5E0,1.1786E4,1.1786E4,4.8857E2,-1.1539523E-2,6.5143E2,1.0776E4,5.9543E3,3.9026102E-3,8.3022116E-4,1.1328E3,1.0776E4,3.2571E2,2.336988E-3,5E0,6.5143E2,6.9643E3,6.5143E2,3.5143E2,3.5143E2,6.5143E2,3.1093836E-3,6.5143E2,8.365E3,-1.1668205E-4,3.5370034E-3,1.9561988E-3,-8.61764E-5,-1.5161255E-4,6.8668724E-4,-2.0301552E-3,-2.5701524E-5,8.103947E-4,1.4180582E-3,-4.5133452E-4,1.2435553E-3,2.922098E-3,1.0536478E-3,2.436386E-3,-4.5707463E-3,-8.776586E-3,-1.9599318E-3,-5.2228896E-3,1.1560917E-4,1.1930704E-3,-1.2785196E-4,1.4020992E-3,2.2058615E-3],"split_indices":[0,6,5,2,5,0,5,6,2,2,2,0,2,4,6,6,1,0,1,5,5,0,0,5,5,1,0,4,1,6,1,2,2,1,0,1,5,0,0,0,0,0,0,0,0,0,0,0,0,0,0,0,0,0,0,0,0,0,0,0,0],"split_type":[0,0,0,0,0,0,0,0,0,0,0,0,0,0,0,0,0,0,0,0,0,0,0,0,0,0,0,0,0,0,0,0,0,0,0,0,0,0,0,0,0,0,0,0,0,0,0,0,0,0,0,0,0,0,0,0,0,0,0,0,0],"sum_hessian":[4.07E2,3.99E2,8E0,3.35E2,6.4E1,2E0,6E0,8.1E1,2.54E2,2.4E1,4E1,3E0,3E0,3.7E1,4.4E1,9.1E1,1.63E2,2E0,2.2E1,8E0,3.2E1,2E0,1E0,1.2E1,2.5E1,2.9E1,1.5E1,7.5E1,1.6E1,8.1E1,8.2E1,1.7E1,5E0,7E0,1E0,9E0,2.3E1,1E0,1.1E1,2.4E1,1E0,1E1,1.9E1,3.1E1,4.4E1,1.1E1,5E0,4.3E1,3.8E1,4.1E1,4.1E1,6E0,1.1E1,2E0,3E0,6E0,1E0,6E0,3E0,9E0,1.4E1],"tree_param":{"num_deleted":"0","num_feature":"7","num_nodes":"61","size_leaf_vector":"1"}},{"base_weights":[-5.569676E-3,4.622214E-3,-4.579237E-1,-1.9305367E-2,6.7553334E-3,-1.5125684E-1,5.9484515E-2,-5.6005064E-3,-4.2822164E-2,3.9949943E-3,1.6185474E-2,7.2836103E-3,3.12618E-2,-2.0856922E-2,8.85125E-3,-3.0047417E-2,-7.1130595E-3,6.4166086E-3,-1.1058348E-2,2.1011246E-2,2.6829657E-3,3.6424322E-3,7.887125E-4,-1.1085272E-4,-2.2720909E-2,4.244745E-3,9.915114E-4,1.907903E-2,-5.3827185E-2,1.578166E-2,2.0008949E-3,-5.419068E-2,5.125451E-3,-3.512076E-4,2.680423E-2,-2.3791492E-3,1.2471825E-2,-2.8004313E-3,-1.4531255E-3,4.890919E-4,1.15311144E-4,4.411459E-4,2.2497734E-3,-6.0981084E-3,-2.3961624E-3,2.232424E-3,9.784981E-4,-4.2393903E-4,8.3659374E-4,-7.89884E-3,8.952439E-4,-1.3503605E-3,1.2513454E-3,2.6660398E-4,-8.5608364E-4,1.9466619E-3,3.2776166E-3,-9.6493366E-4,4.3475893E-4,3.628691E-4,2.600082E-3],"categories":[],"categories_nodes":[],"categories_segments":[],"categories_sizes":[],"default_left":[0,0,0,0,0,0,0,0,0,0,0,0,0,0,0,0,0,0,0,0,0,0,0,0,0,0,0,0,0,0,0,0,0,0,0,0,0,0,0,0,0,0,0,0,0,0,0,0,0,0,0,0,0,0,0,0,0,0,0,0,0],"id":19,"left_children":[1,3,5,7,9,-1,11,13,15,17,19,-1,21,23,25,27,-1,29,31,33,35,-1,-1,-1,37,39,-1,41,43,45,47,49,51,53,55,57,59,-1,-1,-1,-1,-1,-1,-1,-1,-1,-1,-1,-1,-1,-1,-1,-1,-1,-1,-1,-1,-1,-1,-1,-1],"loss_changes":[1.8831364E0,2.0546569E-2,5.0011106E0,1.0395888E-2,9.51452E-3,0E0,3.6073662E-4,5.035214E-3,2.202306E-3,1.0496626E-2,5.3519104E-3,0E0,1.9540545E-4,3.797314E-4,1.6721257E-5,1.2709123E-2,0E0,1.0182709E-2,2.8199552E-2,7.5583085E-3,1.169376E-3,0E0,0E0,0E0,2.5754794E-5,2.3511602E-6,0E0,1.0132848E-4,3.4380704E-5,2.8810222E-3,6.748093E-3,1.7931E-2,4.297922E-3,3.696103E-4,1.4653057E-3,8.244258E-4,8.6276047E-4,0E0,0E0,0E0,0E0,0E0,0E0,0E0,0E0,0E0,0E0,0E0,0E0,0E0,0E0,0E0,0E0,0E0,0E0,0E0,0E0,0E0,0E0,0E0,0E0],"parents":[2147483647,0,0,1,1,2,2,3,3,4,4,6,6,7,7,8,8,9,9,10,10,12,12,13,13,14,14,15,15,17,17,18,18,19,19,20,20,24,24,25,25,27,27,28,28,29,29,30,30,31,31,32,32,33,33,34,34,35,35,36,36],"right_children":[2,4,6,8,10,-1,12,14,16,18,20,-1,22,24,26,28,-1,30,32,34,36,-1,-1,-1,38,40,-1,42,44,46,48,50,52,54,56,58,60,-1,-1,-1,-1,-1,-1,-1,-1,-1,-1,-1,-1,-1,-1,-1,-1,-1,-1,-1,-1,-1,-1,-1,-1],"split_conditions":[6.9643E3,1.1328E3,1.1328E3,1.6607E4,4.8857E2,-1.5125684E-1,3.5435E3,6.9643E3,6.5143E2,1.6607E4,6.5143E2,7.2836103E-3,2.1429E2,2.1429E2,3.2571E2,3.5143E2,-7.1130595E-3,2.1429E2,2.1429E2,3.2571E2,5E0,3.6424322E-3,7.887125E-4,-1.1085272E-4,4.8857E2,3.5143E2,9.915114E-4,3.2571E2,4.8857E2,6.9643E3,3.5143E2,8.365E3,3.5435E3,1.6607E4,4.8857E2,1.1786E4,6.9643E3,-2.8004313E-3,-1.4531255E-3,4.890919E-4,1.15311144E-4,4.411459E-4,2.2497734E-3,-6.0981084E-3,-2.3961624E-3,2.232424E-3,9.784981E-4,-4.2393903E-4,8.3659374E-4,-7.89884E-3,8.952439E-4,-1.3503605E-3,1.2513454E-3,2.6660398E-4,-8.5608364E-4,1.9466619E-3,3.2776166E-3,-9.6493366E-4,4.3475893E-4,3.628691E-4,2.600082E-3],"split_indices":[0,5,5,6,2,0,5,6,1,6,1,0,2,2,1,2,0,2,2,1,4,0,0,0,1,2,0,1,1,6,2,5,5,6,1,6,6,0,0,0,0,0,0,0,0,0,0,0,0,0,0,0,0,0,0,0,0,0,0,0,0],"split_type":[0,0,0,0,0,0,0,0,0,0,0,0,0,0,0,0,0,0,0,0,0,0,0,0,0,0,0,0,0,0,0,0,0,0,0,0,0,0,0,0,0,0,0,0,0,0,0,0,0,0,0,0,0,0,0,0,0,0,0,0,0],"sum_hessian":[4.07E2,3.99E2,8E0,3.2E1,3.67E2,2E0,6E0,2.1E1,1.1E1,2.85E2,8.2E1,3E0,3E0,1E1,1.1E1,9E0,2E0,2.46E2,3.9E1,6E1,2.2E1,2E0,1E0,1E0,9E0,3E0,8E0,3E0,6E0,7.8E1,1.68E2,1E1,2.9E1,1.3E1,4.7E1,1.5E1,7E0,4E0,5E0,2E0,1E0,1E0,2E0,4E0,2E0,3.6E1,4.2E1,8.5E1,8.3E1,7E0,3E0,8E0,2.1E1,1E1,3E0,2.3E1,2.4E1,7E0,8E0,5E0,2E0],"tree_param":{"num_deleted":"0","num_feature":"7","num_nodes":"61","size_leaf_vector":"1"}},{"base_weights":[-5.3843744E-3,4.1297483E-3,-4.2763603E-1,-1.7850146E-2,6.0895495E-3,-1.4117305E-1,5.5209603E-2,-5.166303E-3,-3.9616346E-2,3.5833262E-3,1.4652083E-2,6.7373337E-3,2.924347E-2,-1.9167965E-2,8.099079E-3,-2.7623033E-2,-6.638861E-2,5.7896227E-3,-1.0130137E-2,1.8986136E-2,2.5203747E-3,3.3996105E-3,7.4927806E-4,-1.0530949E-4,-2.0874143E-2,3.971398E-3,9.033706E-4,1.7843902E-2,-4.9657994E-3,-7.926441E-3,-2.0318509E-3,1.4244203E-2,1.8032232E-3,-4.9408328E-2,4.6095373E-3,-3.5813876E-4,2.423267E-2,-2.174452E-3,1.1594981E-2,-2.576394E-3,-1.3320287E-3,4.564921E-4,1.0954142E-4,4.190922E-4,2.0997922E-3,2.015226E-3,8.829267E-4,-3.820411E-4,7.539286E-4,-7.207695E-3,8.2809926E-4,-1.2303246E-3,1.1318879E-3,2.42372E-4,-7.918716E-4,1.7601043E-3,2.9629727E-3,-8.8050665E-4,3.9610334E-4,3.326297E-4,2.4267356E-3],"categories":[],"categories_nodes":[],"categories_segments":[],"categories_sizes":[],"default_left":[0,0,0,0,0,0,0,0,0,0,0,0,0,0,0,0,0,0,0,0,0,0,0,0,0,0,0,0,0,0,0,0,0,0,0,0,0,0,0,0,0,0,0,0,0,0,0,0,0,0,0,0,0,0,0,0,0,0,0,0,0],"id":20,"left_children":[1,3,5,7,9,-1,11,13,15,17,19,-1,21,23,25,27,29,31,33,35,37,-1,-1,-1,39,41,-1,43,-1,-1,-1,45,47,49,51,53,55,57,59,-1,-1,-1,-1,-1,-1,-1,-1,-1,-1,-1,-1,-1,-1,-1,-1,-1,-1,-1,-1,-1,-1],"loss_changes":[1.6408464E0,1.7339187E-2,4.354432E0,8.905939E-3,7.844637E-3,0E0,2.4068356E-4,4.241465E-3,2.0192023E-3,8.711855E-3,4.3162424E-3,0E0,1.5876722E-4,3.1799683E-4,1.0417716E-5,1.0904713E-2,1.6903318E-4,8.299039E-3,2.3385659E-2,6.1995946E-3,1.005098E-3,0E0,0E0,0E0,2.6185066E-5,1.8273786E-6,0E0,8.424651E-5,0E0,0E0,0E0,2.3494195E-3,5.480325E-3,1.49819795E-2,3.5434682E-3,3.1364715E-4,1.1964664E-3,6.8578974E-4,7.575505E-4,0E0,0E0,0E0,0E0,0E0,0E0,0E0,0E0,0E0,0E0,0E0,0E0,0E0,0E0,0E0,0E0,0E0,0E0,0E0,0E0,0E0,0E0],"parents":[2147483647,0,0,1,1,2,2,3,3,4,4,6,6,7,7,8,8,9,9,10,10,12,12,13,13,14,14,15,15,16,16,17,17,18,18,19,19,20,20,24,24,25,25,27,27,31,31,32,32,33,33,34,34,35,35,36,36,37,37,38,38],"right_children":[2,4,6,8,10,-1,12,14,16,18,20,-1,22,24,26,28,30,32,34,36,38,-1,-1,-1,40,42,-1,44,-1,-1,-1,46,48,50,52,54,56,58,60,-1,-1,-1,-1,-1,-1,-1,-1,-1,-1,-1,-1,-1,-1,-1,-1,-1,-1,-1,-1,-1,-1],"split_conditions":[6.9643E3,1.1328E3,1.1328E3,1.6607E4,4.8857E2,-1.4117305E-1,3.5435E3,6.9643E3,6.5143E2,1.6607E4,6.5143E2,6.7373337E-3,2.1429E2,2.1429E2,3.2571E2,3.5143E2,3.5143E2,2.1429E2,2.1429E2,3.2571E2,5E0,3.3996105E-3,7.4927806E-4,-1.0530949E-4,4.8857E2,3.5143E2,9.033706E-4,3.2571E2,-4.9657994E-3,-7.926441E-3,-2.0318509E-3,6.9643E3,3.5143E2,8.365E3,3.5435E3,1.6607E4,4.8857E2,1.1786E4,6.9643E3,-2.576394E-3,-1.3320287E-3,4.564921E-4,1.0954142E-4,4.190922E-4,2.0997922E-3,2.015226E-3,8.829267E-4,-3.820411E-4,7.539286E-4,-7.207695E-3,8.2809926E-4,-1.2303246E-3,1.1318879E-3,2.42372E-4,-7.918716E-4,1.7601043E-3,2.9629727E-3,-8.8050665E-4,3.9610334E-4,3.326297E-4,2.4267356E-3],"split_indices":[0,5,5,6,2,0,5,6,1,6,1,0,2,2,1,2,2,2,2,1,4,0,0,0,1,2,0,1,0,0,0,6,2,5,5,6,1,6,6,0,0,0,0,0,0,0,0,0,0,0,0,0,0,0,0,0,0,0,0,0,0],"split_type":[0,0,0,0,0,0,0,0,0,0,0,0,0,0,0,0,0,0,0,0,0,0,0,0,0,0,0,0,0,0,0,0,0,0,0,0,0,0,0,0,0,0,0,0,0,0,0,0,0,0,0,0,0,0,0,0,0,0,0,0,0],"sum_hessian":[4.07E2,3.99E2,8E0,3.2E1,3.67E2,2E0,6E0,2.1E1,1.1E1,2.85E2,8.2E1,3E0,3E0,1E1,1.1E1,9E0,2E0,2.46E2,3.9E1,6E1,2.2E1,2E0,1E0,1E0,9E0,3E0,8E0,3E0,6E0,1E0,1E0,7.8E1,1.68E2,1E1,2.9E1,1.3E1,4.7E1,1.5E1,7E0,4E0,5E0,2E0,1E0,1E0,2E0,3.6E1,4.2E1,8.5E1,8.3E1,7E0,3E0,8E0,2.1E1,1E1,3E0,2.3E1,2.4E1,7E0,8E0,5E0,2E0],"tree_param":{"num_deleted":"0","num_feature":"7","num_nodes":"61","size_leaf_vector":"1"}},{"base_weights":[-5.1939557E-3,3.6875105E-3,-3.9934868E-1,-1.6518151E-2,5.489411E-3,-1.317615E-1,5.124385E-2,-4.765326E-3,-3.6688488E-2,3.2137916E-3,1.3264564E-2,6.2320414E-3,2.7356327E-2,-1.7616056E-2,7.411619E-3,-2.5105428E-2,-6.306919E-2,5.2239103E-3,-9.279037E-3,1.7155921E-2,2.3672893E-3,3.17297E-3,7.118106E-4,-1.0004044E-4,-1.917758E-2,3.7157536E-3,8.230712E-4,1.6689241E-2,-4.5401607E-2,-7.530117E-3,-1.9302607E-3,1.2856553E-2,1.6250779E-3,-4.5047477E-2,4.14536E-3,-3.6166396E-4,2.19078E-2,-1.9872487E-3,1.0780454E-2,-2.370286E-3,-1.221025E-3,4.26054E-4,1.0406971E-4,3.981352E-4,1.9598089E-3,-5.213003E-3,-1.9053698E-3,1.8191608E-3,7.966935E-4,-3.6174819E-4,7.231422E-4,-6.577027E-3,7.6599716E-4,-1.12097E-3,1.023855E-3,2.2032911E-4,-7.324875E-4,1.5914371E-3,2.6785184E-3,-8.034647E-4,3.6090214E-4,3.0491353E-4,2.2649607E-3],"categories":[],"categories_nodes":[],"categories_segments":[],"categories_sizes":[],"default_left":[0,0,0,0,0,0,0,0,0,0,0,0,0,0,0,0,0,0,0,0,0,0,0,0,0,0,0,0,0,0,0,0,0,0,0,0,0,0,0,0,0,0,0,0,0,0,0,0,0,0,0,0,0,0,0,0,0,0,0,0,0,0,0],"id":21,"left_children":[1,3,5,7,9,-1,11,13,15,17,19,-1,21,23,25,27,29,31,33,35,37,-1,-1,-1,39,41,-1,43,45,-1,-1,47,49,51,53,55,57,59,61,-1,-1,-1,-1,-1,-1,-1,-1,-1,-1,-1,-1,-1,-1,-1,-1,-1,-1,-1,-1,-1,-1,-1,-1],"loss_changes":[1.4297466E0,1.4654113E-2,3.7913957E0,7.6480955E-3,6.4685E-3,0E0,1.4728494E-4,3.573181E-3,2.0834524E-3,7.230525E-3,3.4790179E-3,0E0,1.2818165E-4,2.662181E-4,5.7438738E-6,9.24044E-3,1.5254691E-4,6.7638517E-3,1.9393528E-2,5.0856527E-3,8.640387E-4,0E0,0E0,0E0,2.5873072E-5,1.395405E-6,0E0,6.983429E-5,2.476899E-4,0E0,0E0,1.9158926E-3,4.993338E-3,1.2518499E-2,2.92161E-3,2.6618334E-4,9.768791E-4,5.7048316E-4,6.650518E-4,0E0,0E0,0E0,0E0,0E0,0E0,0E0,0E0,0E0,0E0,0E0,0E0,0E0,0E0,0E0,0E0,0E0,0E0,0E0,0E0,0E0,0E0,0E0,0E0],"parents":[2147483647,0,0,1,1,2,2,3,3,4,4,6,6,7,7,8,8,9,9,10,10,12,12,13,13,14,14,15,15,16,16,17,17,18,18,19,19,20,20,24,24,25,25,27,27,28,28,31,31,32,32,33,33,34,34,35,35,36,36,37,37,38,38],"right_children":[2,4,6,8,10,-1,12,14,16,18,20,-1,22,24,26,28,30,32,34,36,38,-1,-1,-1,40,42,-1,44,46,-1,-1,48,50,52,54,56,58,60,62,-1,-1,-1,-1,-1,-1,-1,-1,-1,-1,-1,-1,-1,-1,-1,-1,-1,-1,-1,-1,-1,-1,-1,-1],"split_conditions":[6.9643E3,1.1328E3,1.1328E3,1.6607E4,4.8857E2,-1.317615E-1,3.5435E3,6.9643E3,6.5143E2,1.6607E4,6.5143E2,6.2320414E-3,2.1429E2,2.1429E2,3.2571E2,3.5143E2,3.5143E2,2.1429E2,2.1429E2,3.2571E2,5E0,3.17297E-3,7.118106E-4,-1.0004044E-4,4.8857E2,3.5143E2,8.230712E-4,3.2571E2,4.8857E2,-7.530117E-3,-1.9302607E-3,6.9643E3,4.8857E2,8.365E3,3.5435E3,1.6607E4,4.8857E2,1.1786E4,6.9643E3,-2.370286E-3,-1.221025E-3,4.26054E-4,1.0406971E-4,3.981352E-4,1.9598089E-3,-5.213003E-3,-1.9053698E-3,1.8191608E-3,7.966935E-4,-3.6174819E-4,7.231422E-4,-6.577027E-3,7.6599716E-4,-1.12097E-3,1.023855E-3,2.2032911E-4,-7.324875E-4,1.5914371E-3,2.6785184E-3,-8.034647E-4,3.6090214E-4,3.0491353E-4,2.2649607E-3],"split_indices":[0,5,5,6,2,0,5,6,1,6,1,0,2,2,1,2,2,2,2,1,4,0,0,0,1,2,0,1,1,0,0,6,1,5,5,6,1,6,6,0,0,0,0,0,0,0,0,0,0,0,0,0,0,0,0,0,0,0,0,0,0,0,0],"split_type":[0,0,0,0,0,0,0,0,0,0,0,0,0,0,0,0,0,0,0,0,0,0,0,0,0,0,0,0,0,0,0,0,0,0,0,0,0,0,0,0,0,0,0,0,0,0,0,0,0,0,0,0,0,0,0,0,0,0,0,0,0,0,0],"sum_hessian":[4.07E2,3.99E2,8E0,3.2E1,3.67E2,2E0,6E0,2.1E1,1.1E1,2.85E2,8.2E1,3E0,3E0,1E1,1.1E1,9E0,2E0,2.46E2,3.9E1,6E1,2.2E1,2E0,1E0,1E0,9E0,3E0,8E0,3E0,6E0,1E0,1E0,7.8E1,1.68E2,1E1,2.9E1,1.3E1,4.7E1,1.5E1,7E0,4E0,5E0,2E0,1E0,1E0,2E0,4E0,2E0,3.6E1,4.2E1,8.7E1,8.1E1,7E0,3E0,8E0,2.1E1,1E1,3E0,2.3E1,2.4E1,7E0,8E0,5E0,2E0],"tree_param":{"num_deleted":"0","num_feature":"7","num_nodes":"63","size_leaf_vector":"1"}},{"base_weights":[-5.0060735E-3,3.2847268E-3,-3.7292987E-1,-1.5368108E-2,4.9484735E-3,-1.229774E-1,4.7564745E-2,-4.395062E-3,-3.420468E-2,3.3708417E-3,1.4261363E-2,5.7646395E-3,2.559191E-2,-1.619003E-2,6.783247E-3,-2.3070907E-2,-5.9915703E-2,1.1042862E-3,1.0768169E-2,1.6527446E-3,7.98808E-3,2.961445E-3,6.762147E-4,-9.503365E-5,-1.7618965E-2,3.4766793E-3,7.4991386E-4,1.5609801E-2,-4.1878324E-2,-7.1536065E-3,-1.8337489E-3,2.9818276E-3,-8.498782E-3,1.4452007E-2,9.920597E-5,2.3225308E-3,9.683053E-3,-2.1806573E-3,-1.1192799E-3,4.5975446E-4,1.5705427E-4,3.7822724E-4,1.8291554E-3,-4.7959615E-3,-1.7783403E-3,1.9476529E-5,1.5556007E-3,-4.1071023E-3,3.7276666E-4,7.402287E-4,2.469012E-3,-3.4681757E-4,4.844692E-4,4.822731E-4,-9.5184645E-5,3.3102036E-4,1.3762201E-3],"categories":[],"categories_nodes":[],"categories_segments":[],"categories_sizes":[],"default_left":[0,0,0,0,0,0,0,0,0,0,0,0,0,0,0,0,0,0,0,0,0,0,0,0,0,0,0,0,0,0,0,0,0,0,0,0,0,0,0,0,0,0,0,0,0,0,0,0,0,0,0,0,0,0,0,0,0],"id":22,"left_children":[1,3,5,7,9,-1,11,13,15,17,19,-1,21,23,25,27,29,31,33,-1,35,-1,-1,-1,37,39,-1,41,43,-1,-1,45,47,49,51,53,55,-1,-1,-1,-1,-1,-1,-1,-1,-1,-1,-1,-1,-1,-1,-1,-1,-1,-1,-1,-1],"loss_changes":[1.2457811E0,1.24894865E-2,3.3011787E0,6.6705896E-3,5.358698E-3,0E0,7.537566E-5,3.0104727E-3,2.0528184E-3,5.286308E-3,6.214138E-4,0E0,1.0271673E-4,2.2279797E-4,2.3336033E-6,7.928555E-3,1.3766997E-4,4.40667E-3,2.906967E-3,0E0,1.3115804E-4,0E0,0E0,0E0,2.5026267E-5,1.3254503E-6,0E0,5.769031E-5,1.7281249E-4,0E0,0E0,7.1461545E-3,1.6082814E-2,3.7869066E-3,3.5538146E-4,4.55235E-5,2.6639388E-4,0E0,0E0,0E0,0E0,0E0,0E0,0E0,0E0,0E0,0E0,0E0,0E0,0E0,0E0,0E0,0E0,0E0,0E0,0E0,0E0],"parents":[2147483647,0,0,1,1,2,2,3,3,4,4,6,6,7,7,8,8,9,9,10,10,12,12,13,13,14,14,15,15,16,16,17,17,18,18,20,20,24,24,25,25,27,27,28,28,31,31,32,32,33,33,34,34,35,35,36,36],"right_children":[2,4,6,8,10,-1,12,14,16,18,20,-1,22,24,26,28,30,32,34,-1,36,-1,-1,-1,38,40,-1,42,44,-1,-1,46,48,50,52,54,56,-1,-1,-1,-1,-1,-1,-1,-1,-1,-1,-1,-1,-1,-1,-1,-1,-1,-1,-1,-1],"split_conditions":[6.9643E3,1.1328E3,1.1328E3,1.6607E4,7E0,-1.229774E-1,3.5435E3,6.9643E3,6.5143E2,4.8857E2,8.365E3,5.7646395E-3,2.1429E2,2.1429E2,3.2571E2,3.5143E2,3.5143E2,1.6607E4,6.5143E2,1.6527446E-3,3.2571E2,2.961445E-3,6.762147E-4,-9.503365E-5,4.8857E2,2.1429E2,7.4991386E-4,3.2571E2,4.8857E2,-7.1536065E-3,-1.8337489E-3,1.1786E4,2.1429E2,4.8857E2,5.9543E3,3.5143E2,3.5143E2,-2.1806573E-3,-1.1192799E-3,4.5975446E-4,1.5705427E-4,3.7822724E-4,1.8291554E-3,-4.7959615E-3,-1.7783403E-3,1.9476529E-5,1.5556007E-3,-4.1071023E-3,3.7276666E-4,7.402287E-4,2.469012E-3,-3.4681757E-4,4.844692E-4,4.822731E-4,-9.5184645E-5,3.3102036E-4,1.3762201E-3],"split_indices":[0,5,5,6,4,0,5,6,1,2,5,0,2,2,1,2,2,6,1,0,1,0,0,0,1,2,0,1,1,0,0,6,2,1,5,2,2,0,0,0,0,0,0,0,0,0,0,0,0,0,0,0,0,0,0,0,0],"split_type":[0,0,0,0,0,0,0,0,0,0,0,0,0,0,0,0,0,0,0,0,0,0,0,0,0,0,0,0,0,0,0,0,0,0,0,0,0,0,0,0,0,0,0,0,0,0,0,0,0,0,0,0,0,0,0,0,0],"sum_hessian":[4.07E2,3.99E2,8E0,3.2E1,3.67E2,2E0,6E0,2.1E1,1.1E1,3.15E2,5.2E1,3E0,3E0,1E1,1.1E1,9E0,2E0,2.42E2,7.3E1,3.7E1,1.5E1,2E0,1E0,1E0,9E0,3E0,8E0,3E0,6E0,1E0,1E0,2.03E2,3.9E1,5.4E1,1.9E1,4E0,1.1E1,4E0,5E0,1E0,2E0,1E0,2E0,4E0,2E0,1.67E2,3.6E1,1E1,2.9E1,3.3E1,2.1E1,1.1E1,8E0,2E0,2E0,5E0,6E0],"tree_param":{"num_deleted":"0","num_feature":"7","num_nodes":"57","size_leaf_vector":"1"}},{"base_weights":[-4.8094736E-3,2.930104E-3,-3.4825632E-1,-1.4297399E-2,4.4669993E-3,-1.147789E-1,4.4151444E-2,-4.047708E-3,-3.189705E-2,2.5786562E-3,1.0920002E-2,5.332285E-3,2.3942173E-2,-1.4879638E-2,6.218871E-4,-2.1200467E-2,-5.6919973E-2,4.2396104E-3,-7.7422024E-3,1.4097902E-2,2.0168761E-3,2.7640185E-3,6.424069E-4,-9.027719E-5,-1.6187048E-2,1.4600694E-2,-3.8629632E-2,-6.795931E-3,-1.742065E-3,1.1111413E-2,1.002261E-3,-3.733739E-2,3.3674398E-3,-1.0494845E-3,1.8222183E-2,-1.8547177E-3,9.507954E-3,-2.0062113E-3,-1.0259986E-3,3.5932063E-4,1.7072121E-3,-4.4122795E-3,-1.6597828E-3,1.2189967E-3,-7.2891713E-4,-4.1044978E-4,6.218678E-4,-9.050862E-3,-1.5465048E-3,-1.054446E-3,8.9056056E-4,1.3300289E-4,-7.330775E-4,1.1494624E-3,2.2233527E-3,-7.339835E-4,3.227022E-4,2.1303892E-4,2.1093765E-3],"categories":[],"categories_nodes":[],"categories_segments":[],"categories_sizes":[],"default_left":[0,0,0,0,0,0,0,0,0,0,0,0,0,0,0,0,0,0,0,0,0,0,0,0,0,0,0,0,0,0,0,0,0,0,0,0,0,0,0,0,0,0,0,0,0,0,0,0,0,0,0,0,0,0,0,0,0,0,0],"id":23,"left_children":[1,3,5,7,9,-1,11,13,15,17,19,-1,21,23,-1,25,27,29,31,33,35,-1,-1,-1,37,39,41,-1,-1,43,45,47,49,51,53,55,57,-1,-1,-1,-1,-1,-1,-1,-1,-1,-1,-1,-1,-1,-1,-1,-1,-1,-1,-1,-1,-1,-1],"loss_changes":[1.085539E0,1.0654614E-2,2.874362E0,5.8237924E-3,4.456099E-3,0E0,2.0767562E-5,2.5390855E-3,2.0051869E-3,4.935571E-3,2.319905E-3,0E0,8.156593E-5,1.8639537E-4,0E0,6.803864E-3,1.2424309E-4,5.4837316E-3,1.327741E-2,3.8299207E-3,6.8469E-4,0E0,0E0,0E0,2.3840461E-5,4.747312E-5,1.14826486E-4,0E0,0E0,1.6566887E-3,4.527512E-3,1.1393051E-2,2.4052968E-3,2.1899996E-4,1.0397881E-3,4.6966883E-4,6.388628E-4,0E0,0E0,0E0,0E0,0E0,0E0,0E0,0E0,0E0,0E0,0E0,0E0,0E0,0E0,0E0,0E0,0E0,0E0,0E0,0E0,0E0,0E0],"parents":[2147483647,0,0,1,1,2,2,3,3,4,4,6,6,7,7,8,8,9,9,10,10,12,12,13,13,15,15,16,16,17,17,18,18,19,19,20,20,24,24,25,25,26,26,29,29,30,30,31,31,32,32,33,33,34,34,35,35,36,36],"right_children":[2,4,6,8,10,-1,12,14,16,18,20,-1,22,24,-1,26,28,30,32,34,36,-1,-1,-1,38,40,42,-1,-1,44,46,48,50,52,54,56,58,-1,-1,-1,-1,-1,-1,-1,-1,-1,-1,-1,-1,-1,-1,-1,-1,-1,-1,-1,-1,-1,-1],"split_conditions":[6.9643E3,1.1328E3,1.1328E3,1.6607E4,4.8857E2,-1.147789E-1,3.5435E3,6.9643E3,6.5143E2,1.6607E4,6.5143E2,5.332285E-3,2.1429E2,2.1429E2,6.218871E-4,3.5143E2,3.5143E2,2.1429E2,2.1429E2,3.2571E2,5E0,2.7640185E-3,6.424069E-4,-9.027719E-5,4.8857E2,3.2571E2,4.8857E2,-6.795931E-3,-1.742065E-3,1.0776E4,3.5143E2,3.5435E3,3.5435E3,1.6607E4,6.9643E3,1.1786E4,6.9643E3,-2.0062113E-3,-1.0259986E-3,3.5932063E-4,1.7072121E-3,-4.4122795E-3,-1.6597828E-3,1.2189967E-3,-7.2891713E-4,-4.1044978E-4,6.218678E-4,-9.050862E-3,-1.5465048E-3,-1.054446E-3,8.9056056E-4,1.3300289E-4,-7.330775E-4,1.1494624E-3,2.2233527E-3,-7.339835E-4,3.227022E-4,2.1303892E-4,2.1093765E-3],"split_indices":[0,5,5,6,2,0,5,6,1,6,1,0,2,2,0,2,2,2,2,1,4,0,0,0,1,1,1,0,0,5,2,5,5,6,6,6,6,0,0,0,0,0,0,0,0,0,0,0,0,0,0,0,0,0,0,0,0,0,0],"split_type":[0,0,0,0,0,0,0,0,0,0,0,0,0,0,0,0,0,0,0,0,0,0,0,0,0,0,0,0,0,0,0,0,0,0,0,0,0,0,0,0,0,0,0,0,0,0,0,0,0,0,0,0,0,0,0,0,0,0,0],"sum_hessian":[4.07E2,3.99E2,8E0,3.2E1,3.67E2,2E0,6E0,2.1E1,1.1E1,2.85E2,8.2E1,3E0,3E0,1E1,1.1E1,9E0,2E0,2.46E2,3.9E1,6E1,2.2E1,2E0,1E0,1E0,9E0,3E0,6E0,1E0,1E0,7.8E1,1.68E2,1E1,2.9E1,1.3E1,4.7E1,1.5E1,7E0,4E0,5E0,1E0,2E0,4E0,2E0,7.4E1,4E0,8.5E1,8.3E1,2E0,8E0,8E0,2.1E1,1E1,3E0,1.9E1,2.8E1,7E0,8E0,5E0,2E0],"tree_param":{"num_deleted":"0","num_feature":"7","num_nodes":"59","size_leaf_vector":"1"}},{"base_weights":[-4.638431E-3,2.58609E-3,-3.2521287E-1,-1.3323524E-2,4.00574E-3,-1.07126966E-1,4.098473E-3,-3.7565557E-3,-2.9752672E-2,2.5843307E-3,1.2404977E-2,-1.3675538E-2,5.648891E-3,-1.9481014E-2,-5.407397E-2,-3.5494817E-3,4.5079216E-3,1.4420427E-2,6.842971E-3,-8.5759166E-5,-1.4871573E-2,2.816856E-3,6.279919E-4,1.3657212E-2,-3.563414E-2,-6.4561367E-3,-1.6549587E-3,1.7092001E-3,-2.6960015E-2,1.955066E-3,9.621104E-3,9.824371E-3,1.5508018E-2,1.7572403E-3,8.391778E-3,-1.845708E-3,-9.405057E-4,4.0568114E-4,1.051267E-4,3.413558E-4,1.5933911E-3,-4.059305E-3,-1.5491247E-3,-1.403084E-4,1.3787453E-3,-8.447472E-3,-1.0334671E-3,-5.5443606E-4,4.7984486E-4,1.4034981E-3,5.080223E-4,1.1779751E-3,3.946364E-4,1.1694775E-3,1.8758298E-3,4.2316914E-4,-1.3029575E-4,2.8333665E-4,1.1957305E-3],"categories":[],"categories_nodes":[],"categories_segments":[],"categories_sizes":[],"default_left":[0,0,0,0,0,0,0,0,0,0,0,0,0,0,0,0,0,0,0,0,0,0,0,0,0,0,0,0,0,0,0,0,0,0,0,0,0,0,0,0,0,0,0,0,0,0,0,0,0,0,0,0,0,0,0,0,0,0,0],"id":24,"left_children":[1,3,5,7,9,-1,-1,11,13,15,17,19,21,23,25,27,29,31,33,-1,35,37,-1,39,41,-1,-1,43,45,47,49,51,53,55,57,-1,-1,-1,-1,-1,-1,-1,-1,-1,-1,-1,-1,-1,-1,-1,-1,-1,-1,-1,-1,-1,-1,-1,-1],"loss_changes":[9.4576764E-1,9.087803E-3,2.5027437E0,5.0750775E-3,4.361403E-3,0E0,0E0,2.1296856E-3,1.9444246E-3,3.7444676E-3,4.954487E-4,1.5588454E-4,3.7555E-6,5.839523E-3,1.1213496E-4,9.40233E-3,3.1270157E-3,3.7590973E-5,1.1128263E-4,0E0,2.2412278E-5,4.4922126E-6,0E0,3.889558E-5,7.0371665E-5,0E0,0E0,2.3875749E-3,1.2513809E-2,3.4810505E-3,1.5321309E-3,6.8450114E-5,1.4005508E-4,4.3375265E-5,2.0394457E-4,0E0,0E0,0E0,0E0,0E0,0E0,0E0,0E0,0E0,0E0,0E0,0E0,0E0,0E0,0E0,0E0,0E0,0E0,0E0,0E0,0E0,0E0,0E0,0E0],"parents":[2147483647,0,0,1,1,2,2,3,3,4,4,7,7,8,8,9,9,10,10,11,11,12,12,13,13,14,14,15,15,16,16,17,17,18,18,20,20,21,21,23,23,24,24,27,27,28,28,29,29,30,30,31,31,32,32,33,33,34,34],"right_children":[2,4,6,8,10,-1,-1,12,14,16,18,20,22,24,26,28,30,32,34,-1,36,38,-1,40,42,-1,-1,44,46,48,50,52,54,56,58,-1,-1,-1,-1,-1,-1,-1,-1,-1,-1,-1,-1,-1,-1,-1,-1,-1,-1,-1,-1,-1,-1,-1,-1],"split_conditions":[6.9643E3,1.1328E3,1.1328E3,1.6607E4,7E0,-1.07126966E-1,4.098473E-3,6.9643E3,6.5143E2,3.5435E3,8.365E3,2.1429E2,3.2571E2,3.5143E2,3.5143E2,1.6607E4,1.1786E4,3.2571E2,3.2571E2,-8.5759166E-5,4.8857E2,2.1429E2,6.279919E-4,3.2571E2,4.8857E2,-6.4561367E-3,-1.6549587E-3,1.1786E4,2.1429E2,3.2571E2,1.6607E4,3.5143E2,3.5143E2,3.5143E2,3.5143E2,-1.845708E-3,-9.405057E-4,4.0568114E-4,1.051267E-4,3.413558E-4,1.5933911E-3,-4.059305E-3,-1.5491247E-3,-1.403084E-4,1.3787453E-3,-8.447472E-3,-1.0334671E-3,-5.5443606E-4,4.7984486E-4,1.4034981E-3,5.080223E-4,1.1779751E-3,3.946364E-4,1.1694775E-3,1.8758298E-3,4.2316914E-4,-1.3029575E-4,2.8333665E-4,1.1957305E-3],"split_indices":[0,5,5,6,4,0,0,6,1,5,5,2,1,2,2,6,6,1,1,0,1,2,0,1,1,0,0,6,2,1,6,2,2,2,2,0,0,0,0,0,0,0,0,0,0,0,0,0,0,0,0,0,0,0,0,0,0,0,0],"split_type":[0,0,0,0,0,0,0,0,0,0,0,0,0,0,0,0,0,0,0,0,0,0,0,0,0,0,0,0,0,0,0,0,0,0,0,0,0,0,0,0,0,0,0,0,0,0,0,0,0,0,0,0,0,0,0,0,0,0,0],"sum_hessian":[4.07E2,3.99E2,8E0,3.2E1,3.67E2,2E0,6E0,2.1E1,1.1E1,3.15E2,5.2E1,1E1,1.1E1,9E0,2E0,7.5E1,2.4E2,3.7E1,1.5E1,1E0,9E0,3E0,8E0,3E0,6E0,1E0,1E0,6.2E1,1.3E1,1.61E2,7.9E1,9E0,2.8E1,4E0,1.1E1,4E0,5E0,1E0,2E0,1E0,2E0,4E0,2E0,5E1,1.2E1,2E0,1.1E1,4.4E1,1.17E2,3.9E1,4E1,6E0,3E0,1.5E1,1.3E1,2E0,2E0,5E0,6E0],"tree_param":{"num_deleted":"0","num_feature":"7","num_nodes":"59","size_leaf_vector":"1"}},{"base_weights":[-4.460341E-3,2.2935825E-3,-3.041391E-1,-1.2400808E-2,3.6050535E-3,-9.998515E-2,3.7471805E-2,-3.459692E-3,-2.7759453E-2,2.3055447E-3,1.1285049E-2,4.6249866E-3,1.9325793E-2,-1.2569081E-2,5.178889E-3,-1.7900253E-2,-5.1370304E-2,4.8727362E-4,8.245197E-3,1.3099902E-2,6.269455E-3,2.306525E-3,4.053712E-4,-8.146763E-5,-1.36630535E-2,2.6628375E-3,5.7217013E-4,1.2775183E-2,-3.2871895E-2,-6.13333E-3,-1.5722156E-3,-5.7235938E-3,2.37782E-3,1.1257965E-2,-4.5217277E-4,1.057061E-2,1.5072848E-2,1.6400337E-3,7.6759257E-3,-1.69806E-3,-8.621256E-4,3.8539173E-4,9.81172E-5,3.2428504E-4,1.4871677E-3,-3.9989473E-3,-1.7536342E-3,-2.4510446E-5,-2.8611356E-3,6.979688E-4,2.021175E-5,5.2063604E-4,2.0098719E-3,-3.4857195E-4,3.6427975E-4,8.7531673E-4,1.7951727E-3,9.797291E-4,1.9845988E-3,3.9495627E-4,-1.2161732E-4,2.597332E-4,1.0932445E-3],"categories":[],"categories_nodes":[],"categories_segments":[],"categories_sizes":[],"default_left":[0,0,0,0,0,0,0,0,0,0,0,0,0,0,0,0,0,0,0,0,0,0,0,0,0,0,0,0,0,0,0,0,0,0,0,0,0,0,0,0,0,0,0,0,0,0,0,0,0,0,0,0,0,0,0,0,0,0,0,0,0,0,0],"id":25,"left_children":[1,3,5,7,9,-1,11,13,15,17,19,-1,21,23,25,27,29,31,33,35,37,-1,-1,-1,39,41,-1,43,45,-1,-1,47,49,51,53,55,57,59,61,-1,-1,-1,-1,-1,-1,-1,-1,-1,-1,-1,-1,-1,-1,-1,-1,-1,-1,-1,-1,-1,-1,-1,-1],"loss_changes":[8.264926E-1,7.7532115E-3,2.1764328E0,4.4356342E-3,3.646704E-3,0E0,2.2119097E-4,1.7963218E-3,1.8738676E-3,3.4087503E-3,4.0030666E-4,0E0,1.3493735E-4,1.3031799E-4,1.1529773E-6,5.0125606E-3,1.0119472E-4,2.8668991E-3,1.9441233E-3,3.0296855E-5,9.158952E-5,0E0,0E0,0E0,2.0869891E-5,4.2306347E-6,0E0,3.17113E-5,6.279489E-5,0E0,0E0,7.1402374E-3,1.8708884E-3,2.8379005E-3,2.6114343E-4,1.111608E-4,2.8400123E-4,3.7785816E-5,1.700673E-4,0E0,0E0,0E0,0E0,0E0,0E0,0E0,0E0,0E0,0E0,0E0,0E0,0E0,0E0,0E0,0E0,0E0,0E0,0E0,0E0,0E0,0E0,0E0,0E0],"parents":[2147483647,0,0,1,1,2,2,3,3,4,4,6,6,7,7,8,8,9,9,10,10,12,12,13,13,14,14,15,15,16,16,17,17,18,18,19,19,20,20,24,24,25,25,27,27,28,28,31,31,32,32,33,33,34,34,35,35,36,36,37,37,38,38],"right_children":[2,4,6,8,10,-1,12,14,16,18,20,-1,22,24,26,28,30,32,34,36,38,-1,-1,-1,40,42,-1,44,46,-1,-1,48,50,52,54,56,58,60,62,-1,-1,-1,-1,-1,-1,-1,-1,-1,-1,-1,-1,-1,-1,-1,-1,-1,-1,-1,-1,-1,-1,-1,-1],"split_conditions":[6.9643E3,1.1328E3,1.1328E3,1.6607E4,7E0,-9.998515E-2,3.5435E3,6.9643E3,6.5143E2,4.8857E2,8.365E3,4.6249866E-3,2.1429E2,2.1429E2,3.2571E2,3.5143E2,3.5143E2,3.5435E3,6.5143E2,4.8857E2,3.2571E2,2.306525E-3,4.053712E-4,-8.146763E-5,4.8857E2,2.1429E2,5.7217013E-4,3.2571E2,4.8857E2,-6.13333E-3,-1.5722156E-3,1.6607E4,2.1429E2,4.8857E2,5.9543E3,4.8857E2,3.5143E2,3.5143E2,3.5143E2,-1.69806E-3,-8.621256E-4,3.8539173E-4,9.81172E-5,3.2428504E-4,1.4871677E-3,-3.9989473E-3,-1.7536342E-3,-2.4510446E-5,-2.8611356E-3,6.979688E-4,2.021175E-5,5.2063604E-4,2.0098719E-3,-3.4857195E-4,3.6427975E-4,8.7531673E-4,1.7951727E-3,9.797291E-4,1.9845988E-3,3.9495627E-4,-1.2161732E-4,2.597332E-4,1.0932445E-3],"split_indices":[0,5,5,6,4,0,5,6,1,2,5,0,2,2,1,2,2,5,1,1,1,0,0,0,1,2,0,1,2,0,0,6,2,1,5,2,2,2,2,0,0,0,0,0,0,0,0,0,0,0,0,0,0,0,0,0,0,0,0,0,0,0,0],"split_type":[0,0,0,0,0,0,0,0,0,0,0,0,0,0,0,0,0,0,0,0,0,0,0,0,0,0,0,0,0,0,0,0,0,0,0,0,0,0,0,0,0,0,0,0,0,0,0,0,0,0,0,0,0,0,0,0,0,0,0,0,0,0,0],"sum_hessian":[4.07E2,3.99E2,8E0,3.2E1,3.67E2,2E0,6E0,2.1E1,1.1E1,3.15E2,5.2E1,3E0,3E0,1E1,1.1E1,9E0,2E0,2.42E2,7.3E1,3.7E1,1.5E1,2E0,1E0,1E0,9E0,3E0,8E0,3E0,6E0,1E0,1E0,5.6E1,1.86E2,5.4E1,1.9E1,1.9E1,1.8E1,4E0,1.1E1,4E0,5E0,1E0,2E0,1E0,2E0,3E0,3E0,4.6E1,1E1,5.9E1,1.27E2,3.3E1,2.1E1,1.1E1,8E0,1.7E1,2E0,1E1,8E0,2E0,2E0,5E0,6E0],"tree_param":{"num_deleted":"0","num_feature":"7","num_nodes":"63","size_leaf_vector":"1"}},{"base_weights":[-4.2550913E-3,2.0502447E-3,-2.8401947E-1,-1.156174E-2,3.2653136E-3,-9.331948E-2,3.4772735E-2,-3.1858357E-3,-2.5954088E-2,2.0761844E-3,1.0293605E-2,4.2781057E-3,1.8071234E-2,-1.1552334E-2,4.7489404E-4,-1.6504359E-2,-4.880182E-2,4.2963127E-4,7.4550523E-3,1.1938258E-2,5.744204E-3,2.152761E-3,3.851056E-4,-7.739067E-5,-1.2552786E-2,1.1950493E-2,-3.0406509E-2,-5.826664E-3,-1.4936089E-3,-5.2018417E-3,2.143879E-3,1.0178137E-2,-4.0618182E-4,9.647155E-3,1.3721617E-2,1.5306473E-3,7.0211687E-3,-1.5048821E-3,-7.0469856E-4,3.0807257E-4,1.3880174E-3,-3.5044574E-3,-1.2540896E-3,-2.2106984E-5,-2.6010426E-3,2.0926183E-5,6.4431265E-4,-1.6609431E-4,1.388216E-3,-5.3075043E-4,2.0734924E-4,7.9265574E-4,1.6755024E-3,8.9066895E-4,1.8081904E-3,3.6861896E-4,-1.1351109E-4,2.3809672E-4,9.99546E-4],"categories":[],"categories_nodes":[],"categories_segments":[],"categories_sizes":[],"default_left":[0,0,0,0,0,0,0,0,0,0,0,0,0,0,0,0,0,0,0,0,0,0,0,0,0,0,0,0,0,0,0,0,0,0,0,0,0,0,0,0,0,0,0,0,0,0,0,0,0,0,0,0,0,0,0,0,0,0,0],"id":26,"left_children":[1,3,5,7,9,-1,11,13,15,17,19,-1,21,23,-1,25,27,29,31,33,35,-1,-1,-1,37,39,41,-1,-1,43,45,47,49,51,53,55,57,-1,-1,-1,-1,-1,-1,-1,-1,-1,-1,-1,-1,-1,-1,-1,-1,-1,-1,-1,-1,-1,-1],"loss_changes":[7.2029775E-1,6.653552E-3,1.8950182E0,3.8954294E-3,3.0542058E-3,0E0,1.6315002E-4,1.5153597E-3,1.7854152E-3,2.7954802E-3,3.2798015E-4,0E0,1.1369691E-4,1.0890176E-4,0E0,4.3192087E-3,9.132316E-5,2.357011E-3,1.5882379E-3,2.2887718E-5,7.5342075E-5,0E0,0E0,0E0,3.1377887E-5,2.5702233E-5,1.405431E-4,0E0,0E0,5.90189E-3,1.554005E-3,2.4349294E-3,2.540787E-4,1.1178607E-4,2.3784512E-4,3.291501E-5,1.4181697E-4,0E0,0E0,0E0,0E0,0E0,0E0,0E0,0E0,0E0,0E0,0E0,0E0,0E0,0E0,0E0,0E0,0E0,0E0,0E0,0E0,0E0,0E0],"parents":[2147483647,0,0,1,1,2,2,3,3,4,4,6,6,7,7,8,8,9,9,10,10,12,12,13,13,15,15,16,16,17,17,18,18,19,19,20,20,24,24,25,25,26,26,29,29,30,30,31,31,32,32,33,33,34,34,35,35,36,36],"right_children":[2,4,6,8,10,-1,12,14,16,18,20,-1,22,24,-1,26,28,30,32,34,36,-1,-1,-1,38,40,42,-1,-1,44,46,48,50,52,54,56,58,-1,-1,-1,-1,-1,-1,-1,-1,-1,-1,-1,-1,-1,-1,-1,-1,-1,-1,-1,-1,-1,-1],"split_conditions":[6.9643E3,1.1328E3,1.1328E3,1.6607E4,7E0,-9.331948E-2,3.5435E3,6.9643E3,6.5143E2,4.8857E2,8.365E3,4.2781057E-3,2.1429E2,2.1429E2,4.7489404E-4,3.5143E2,3.5143E2,3.5435E3,6.5143E2,4.8857E2,3.2571E2,2.152761E-3,3.851056E-4,-7.739067E-5,4.8857E2,3.2571E2,4.8857E2,-5.826664E-3,-1.4936089E-3,1.6607E4,1.1786E4,3.2571E2,6.9643E3,4.8857E2,3.5143E2,3.5143E2,3.5143E2,-1.5048821E-3,-7.0469856E-4,3.0807257E-4,1.3880174E-3,-3.5044574E-3,-1.2540896E-3,-2.2106984E-5,-2.6010426E-3,2.0926183E-5,6.4431265E-4,-1.6609431E-4,1.388216E-3,-5.3075043E-4,2.0734924E-4,7.9265574E-4,1.6755024E-3,8.9066895E-4,1.8081904E-3,3.6861896E-4,-1.1351109E-4,2.3809672E-4,9.99546E-4],"split_indices":[0,5,5,6,4,0,5,6,1,2,5,0,2,2,0,2,2,5,1,1,1,0,0,0,2,1,1,0,0,6,6,1,6,2,2,2,2,0,0,0,0,0,0,0,0,0,0,0,0,0,0,0,0,0,0,0,0,0,0],"split_type":[0,0,0,0,0,0,0,0,0,0,0,0,0,0,0,0,0,0,0,0,0,0,0,0,0,0,0,0,0,0,0,0,0,0,0,0,0,0,0,0,0,0,0,0,0,0,0,0,0,0,0,0,0,0,0,0,0,0,0],"sum_hessian":[4.07E2,3.99E2,8E0,3.2E1,3.67E2,2E0,6E0,2.1E1,1.1E1,3.15E2,5.2E1,3E0,3E0,1E1,1.1E1,9E0,2E0,2.42E2,7.3E1,3.7E1,1.5E1,2E0,1E0,1E0,9E0,3E0,6E0,1E0,1E0,5.6E1,1.86E2,5.4E1,1.9E1,1.9E1,1.8E1,4E0,1.1E1,5E0,4E0,1E0,2E0,4E0,2E0,4.6E1,1E1,1.29E2,5.7E1,1.3E1,4.1E1,6E0,1.3E1,1.7E1,2E0,1E1,8E0,2E0,2E0,5E0,6E0],"tree_param":{"num_deleted":"0","num_feature":"7","num_nodes":"59","size_leaf_vector":"1"}},{"base_weights":[-4.0577697E-3,1.8287284E-3,-2.6522905E-1,3.4961347E-3,-6.8186135E-3,-8.709819E-2,3.2269172E-2,1.8200866E-3,1.0730119E-2,-2.3554115E-2,3.5522683E-3,3.957242E-3,1.6898632E-2,-2.4269712E-3,5.2448763E-3,4.313588E-3,1.2004509E-2,-7.5201667E-3,-1.5793385E-2,-1.573483E-2,8.7047415E-3,2.0092488E-3,3.658533E-4,7.5165033E-3,-1.37001155E-2,-1.488982E-4,1.6251154E-2,2.1612048E-3,4.790915E-4,8.193841E-3,1.2942863E-2,-7.836593E-3,-3.703153E-2,-2.5250733E-2,3.019619E-3,3.9711E-3,1.4120372E-2,-1.0604967E-3,1.0941855E-3,-7.7065306E-5,-1.8607276E-3,-1.005881E-3,9.389864E-4,3.0800147E-4,3.287442E-3,3.42381E-4,5.9906644E-5,9.5658604E-4,4.998843E-4,1.4747019E-3,9.3149394E-4,2.2424017E-3,-2.4835567E-3,-5.997658E-3,-1.0564864E-3,-3.2812767E-3,1.3841748E-3,1.5929064E-3,-1.4373915E-4,1.0328315E-3,1.9638825E-3],"categories":[],"categories_nodes":[],"categories_segments":[],"categories_sizes":[],"default_left":[0,0,0,0,0,0,0,0,0,0,0,0,0,0,0,0,0,0,0,0,0,0,0,0,0,0,0,0,0,0,0,0,0,0,0,0,0,0,0,0,0,0,0,0,0,0,0,0,0,0,0,0,0,0,0,0,0,0,0,0,0],"id":27,"left_children":[1,3,5,7,9,-1,11,13,15,17,19,-1,21,23,25,27,29,-1,31,33,35,-1,-1,37,39,41,43,45,-1,47,49,51,53,55,-1,57,59,-1,-1,-1,-1,-1,-1,-1,-1,-1,-1,-1,-1,-1,-1,-1,-1,-1,-1,-1,-1,-1,-1,-1,-1],"loss_changes":[6.2773776E-1,5.7912916E-3,1.6499994E0,4.054304E-3,1.1365194E-2,0E0,1.1706399E-4,3.998136E-3,4.6337862E-4,8.832878E-3,4.2113946E-3,0E0,9.5638796E-5,1.3890566E-2,9.025957E-3,1.9745348E-6,7.988699E-5,0E0,3.5965112E-3,4.6961512E-3,7.8990334E-4,0E0,0E0,4.2128162E-3,3.6655832E-3,9.830864E-3,1.0846117E-2,5.8383666E-6,0E0,9.16858E-6,1.2444612E-4,9.816101E-3,3.01003E-3,2.8191349E-3,0E0,1.2517127E-3,1.1105859E-4,0E0,0E0,0E0,0E0,0E0,0E0,0E0,0E0,0E0,0E0,0E0,0E0,0E0,0E0,0E0,0E0,0E0,0E0,0E0,0E0,0E0,0E0,0E0,0E0],"parents":[2147483647,0,0,1,1,2,2,3,3,4,4,6,6,7,7,8,8,9,9,10,10,12,12,13,13,14,14,15,15,16,16,18,18,19,19,20,20,23,23,24,24,25,25,26,26,27,27,29,29,30,30,31,31,32,32,33,33,35,35,36,36],"right_children":[2,4,6,8,10,-1,12,14,16,18,20,-1,22,24,26,28,30,-1,32,34,36,-1,-1,38,40,42,44,46,-1,48,50,52,54,56,-1,58,60,-1,-1,-1,-1,-1,-1,-1,-1,-1,-1,-1,-1,-1,-1,-1,-1,-1,-1,-1,-1,-1,-1,-1,-1],"split_conditions":[6.9643E3,1.6607E4,1.1328E3,1.1786E4,3.5435E3,-8.709819E-2,3.5435E3,5E0,1.1328E3,2.1429E2,2.1429E2,3.957242E-3,2.1429E2,6.9643E3,6.9643E3,3.2571E2,3.2571E2,-7.5201667E-3,6.5143E2,1.0776E4,8.365E3,2.0092488E-3,3.658533E-4,1.1328E3,2.1429E2,7E0,3.5143E2,2.1429E2,4.790915E-4,8.365E3,6.5143E2,3.5143E2,3.5143E2,6.5143E2,3.019619E-3,3.5143E2,4.8857E2,-1.0604967E-3,1.0941855E-3,-7.7065306E-5,-1.8607276E-3,-1.005881E-3,9.389864E-4,3.0800147E-4,3.287442E-3,3.42381E-4,5.9906644E-5,9.5658604E-4,4.998843E-4,1.4747019E-3,9.3149394E-4,2.2424017E-3,-2.4835567E-3,-5.997658E-3,-1.0564864E-3,-3.2812767E-3,1.3841748E-3,1.5929064E-3,-1.4373915E-4,1.0328315E-3,1.9638825E-3],"split_indices":[0,6,5,6,5,0,5,4,5,2,2,0,2,6,6,1,1,0,1,5,5,0,0,5,2,4,2,2,0,5,1,2,2,1,0,2,2,0,0,0,0,0,0,0,0,0,0,0,0,0,0,0,0,0,0,0,0,0,0,0,0],"split_type":[0,0,0,0,0,0,0,0,0,0,0,0,0,0,0,0,0,0,0,0,0,0,0,0,0,0,0,0,0,0,0,0,0,0,0,0,0,0,0,0,0,0,0,0,0,0,0,0,0,0,0,0,0,0,0,0,0,0,0,0,0],"sum_hessian":[4.07E2,3.99E2,8E0,3.35E2,6.4E1,2E0,6E0,2.73E2,6.2E1,2.4E1,4E1,3E0,3E0,1.22E2,1.51E2,1.1E1,5.1E1,2E0,2.2E1,8E0,3.2E1,2E0,1E0,6.5E1,5.7E1,1.02E2,4.9E1,3E0,8E0,1.2E1,3.9E1,1.7E1,5E0,7E0,1E0,1.8E1,1.4E1,1E1,5.5E1,1.6E1,4.1E1,5E1,5.2E1,2.8E1,2.1E1,1E0,2E0,7E0,5E0,2.4E1,1.5E1,6E0,1.1E1,2E0,3E0,6E0,1E0,5E0,1.3E1,1E1,4E0],"tree_param":{"num_deleted":"0","num_feature":"7","num_nodes":"61","size_leaf_vector":"1"}},{"base_weights":[-3.856989E-3,1.6386736E-3,-2.4768011E-1,-1.0122378E-2,2.6888803E-3,-8.1291646E-2,2.9946906E-2,-2.6627562E-3,-2.2954822E-2,1.3636008E-3,7.2231092E-3,3.6604465E-3,1.5802622E-2,-9.640888E-3,3.9557614E-3,-1.434269E-2,-4.4010323E-2,2.5037832E-3,-5.7111145E-3,9.647138E-3,4.8011282E-4,1.8753052E-3,3.4756662E-4,-1.3889933E-3,-5.2285874E-3,5.644719E-4,3.0534982E-3,9.497702E-3,-2.5916815E-2,-5.2354457E-3,-1.3661027E-3,8.383337E-3,-2.594629E-4,-3.0626709E-2,3.614974E-3,-1.7467226E-3,1.2769367E-2,-2.3987293E-3,6.177783E-3,1.0650158E-4,-7.9590327E-4,2.5486946E-5,4.2165007E-4,1.8055439E-4,1.1459907E-3,-3.3061744E-3,-1.2292684E-3,1.3206837E-3,4.0379236E-4,-4.7646734E-4,4.5785616E-4,-4.752365E-3,1.0823846E-3,1.1743816E-3,-4.231751E-4,2.774759E-5,-6.876588E-4,6.9439533E-4,1.634657E-3,-4.9383246E-4,4.1760443E-4,-3.8250288E-5,1.7239094E-3],"categories":[],"categories_nodes":[],"categories_segments":[],"categories_sizes":[],"default_left":[0,0,0,0,0,0,0,0,0,0,0,0,0,0,0,0,0,0,0,0,0,0,0,0,0,0,0,0,0,0,0,0,0,0,0,0,0,0,0,0,0,0,0,0,0,0,0,0,0,0,0,0,0,0,0,0,0,0,0,0,0,0,0],"id":28,"left_children":[1,3,5,7,9,-1,11,13,15,17,19,-1,21,23,25,27,29,31,33,35,37,-1,-1,-1,39,-1,41,43,45,-1,-1,47,49,51,53,55,57,59,61,-1,-1,-1,-1,-1,-1,-1,-1,-1,-1,-1,-1,-1,-1,-1,-1,-1,-1,-1,-1,-1,-1,-1,-1],"loss_changes":[5.471135E-1,4.967832E-3,1.4366682E0,3.0978078E-3,2.2015066E-3,0E0,8.071819E-5,1.0542048E-3,1.5447661E-3,2.3213082E-3,1.3520215E-3,0E0,8.029991E-5,1.3360404E-4,1.0504882E-6,3.0054676E-3,4.449999E-5,4.015099E-3,9.405316E-3,2.192332E-3,3.9208075E-4,0E0,0E0,0E0,1.2876683E-4,0E0,3.1473464E-5,3.9683015E-5,2.749865E-4,0E0,0E0,1.6025198E-3,3.7053928E-3,8.218652E-3,1.9632406E-3,1.472822E-4,8.867476E-4,2.8777888E-4,5.8711687E-4,0E0,0E0,0E0,0E0,0E0,0E0,0E0,0E0,0E0,0E0,0E0,0E0,0E0,0E0,0E0,0E0,0E0,0E0,0E0,0E0,0E0,0E0,0E0,0E0],"parents":[2147483647,0,0,1,1,2,2,3,3,4,4,6,6,7,7,8,8,9,9,10,10,12,12,13,13,14,14,15,15,16,16,17,17,18,18,19,19,20,20,24,24,26,26,27,27,28,28,31,31,32,32,33,33,34,34,35,35,36,36,37,37,38,38],"right_children":[2,4,6,8,10,-1,12,14,16,18,20,-1,22,24,26,28,30,32,34,36,38,-1,-1,-1,40,-1,42,44,46,-1,-1,48,50,52,54,56,58,60,62,-1,-1,-1,-1,-1,-1,-1,-1,-1,-1,-1,-1,-1,-1,-1,-1,-1,-1,-1,-1,-1,-1,-1,-1],"split_conditions":[6.9643E3,1.1328E3,1.1328E3,1.6607E4,4.8857E2,-8.1291646E-2,3.5435E3,6.9643E3,6.5143E2,1.6607E4,6.5143E2,3.6604465E-3,2.1429E2,4.8857E2,2.1429E2,3.5143E2,3.5143E2,2.1429E2,2.1429E2,3.2571E2,5E0,1.8753052E-3,3.4756662E-4,-1.3889933E-3,6.5143E2,5.644719E-4,3.5143E2,3.2571E2,4.8857E2,-5.2354457E-3,-1.3661027E-3,6.9643E3,4.8857E2,8.365E3,3.5143E2,1.6607E4,6.9643E3,1.6607E4,6.9643E3,1.0650158E-4,-7.9590327E-4,2.5486946E-5,4.2165007E-4,1.8055439E-4,1.1459907E-3,-3.3061744E-3,-1.2292684E-3,1.3206837E-3,4.0379236E-4,-4.7646734E-4,4.5785616E-4,-4.752365E-3,1.0823846E-3,1.1743816E-3,-4.231751E-4,2.774759E-5,-6.876588E-4,6.9439533E-4,1.634657E-3,-4.9383246E-4,4.1760443E-4,-3.8250288E-5,1.7239094E-3],"split_indices":[0,5,5,6,2,0,5,6,1,6,1,0,2,1,2,2,2,2,2,1,4,0,0,0,1,0,2,1,2,0,0,6,1,5,2,6,6,6,6,0,0,0,0,0,0,0,0,0,0,0,0,0,0,0,0,0,0,0,0,0,0,0,0],"split_type":[0,0,0,0,0,0,0,0,0,0,0,0,0,0,0,0,0,0,0,0,0,0,0,0,0,0,0,0,0,0,0,0,0,0,0,0,0,0,0,0,0,0,0,0,0,0,0,0,0,0,0,0,0,0,0,0,0,0,0,0,0,0,0],"sum_hessian":[4.07E2,3.99E2,8E0,3.2E1,3.67E2,2E0,6E0,2.1E1,1.1E1,2.85E2,8.2E1,3E0,3E0,1E1,1.1E1,9E0,2E0,2.46E2,3.9E1,6E1,2.2E1,2E0,1E0,4E0,6E0,2E0,9E0,3E0,6E0,1E0,1E0,7.8E1,1.68E2,1E1,2.9E1,1.3E1,4.7E1,1.5E1,7E0,2E0,4E0,3E0,6E0,1E0,2E0,3E0,3E0,3.6E1,4.2E1,8.7E1,8.1E1,7E0,3E0,1.4E1,1.5E1,1E1,3E0,1.9E1,2.8E1,1.1E1,4E0,5E0,2E0],"tree_param":{"num_deleted":"0","num_feature":"7","num_nodes":"63","size_leaf_vector":"1"}},{"base_weights":[-3.677727E-3,1.4527619E-3,-2.3129082E-1,-3.5963554E-3,3.6037986E-3,-7.5872205E-2,2.7792659E-2,9.411375E-4,-2.0876475E-2,-7.023112E-4,5.1465738E-3,3.3859133E-3,1.4778018E-2,-1.2475661E-3,7.55923E-3,-6.701994E-3,-1.3950089E-2,-3.282716E-3,6.0893353E-3,2.463116E-3,7.83217E-3,1.7502785E-3,3.301859E-4,-3.316813E-3,8.557944E-3,3.6444068E-3,1.0591433E-3,-6.6255596E-3,-3.359866E-2,-1.0656944E-2,3.217705E-3,-1.1953926E-2,1.1037981E-2,8.116671E-3,-2.824055E-3,1.021817E-3,1.1476214E-2,-7.5862685E-4,-1.4118355E-5,5.583704E-4,1.1097272E-3,2.2201538E-4,4.3445654E-4,1.9645453E-3,-2.1398186E-3,-5.462448E-3,-9.4296335E-4,5.6439178E-5,-2.0315545E-3,-3.8487435E-4,1.5773274E-3,7.702112E-4,-2.7625323E-3,5.404069E-4,2.3478556E-3,1.1344597E-3,-1.3793809E-3,-7.039117E-4,8.885384E-4,-5.6229724E-4,1.0094539E-3,1.4561777E-3,7.8558846E-4],"categories":[],"categories_nodes":[],"categories_segments":[],"categories_sizes":[],"default_left":[0,0,0,0,0,0,0,0,0,0,0,0,0,0,0,0,0,0,0,0,0,0,0,0,0,0,0,0,0,0,0,0,0,0,0,0,0,0,0,0,0,0,0,0,0,0,0,0,0,0,0,0,0,0,0,0,0,0,0,0,0,0,0],"id":29,"left_children":[1,3,5,7,9,-1,11,13,15,17,19,-1,21,23,25,-1,27,29,31,33,35,-1,-1,37,39,41,-1,43,45,47,49,51,53,55,57,59,61,-1,-1,-1,-1,-1,-1,-1,-1,-1,-1,-1,-1,-1,-1,-1,-1,-1,-1,-1,-1,-1,-1,-1,-1,-1,-1],"loss_changes":[4.7678474E-1,4.3572956E-3,1.2509252E0,9.428657E-3,1.870398E-3,0E0,5.2299816E-5,1.3999947E-3,7.055253E-3,1.3343794E-3,1.4724932E-3,0E0,6.728765E-5,1.5095564E-3,2.462935E-4,0E0,3.0874708E-3,2.6707482E-3,2.007031E-3,3.1615095E-3,2.5444478E-3,0E0,0E0,8.259795E-4,3.62196E-5,2.3208268E-6,0E0,7.406031E-3,2.5339527E-3,2.829409E-3,2.7224058E-3,1.752961E-3,1.0646349E-3,3.7634815E-3,2.7771255E-3,2.2873553E-3,6.340444E-4,0E0,0E0,0E0,0E0,0E0,0E0,0E0,0E0,0E0,0E0,0E0,0E0,0E0,0E0,0E0,0E0,0E0,0E0,0E0,0E0,0E0,0E0,0E0,0E0,0E0,0E0],"parents":[2147483647,0,0,1,1,2,2,3,3,4,4,6,6,7,7,8,8,9,9,10,10,12,12,13,13,14,14,16,16,17,17,18,18,19,19,20,20,23,23,24,24,25,25,27,27,28,28,29,29,30,30,31,31,32,32,33,33,34,34,35,35,36,36],"right_children":[2,4,6,8,10,-1,12,14,16,18,20,-1,22,24,26,-1,28,30,32,34,36,-1,-1,38,40,42,-1,44,46,48,50,52,54,56,58,60,62,-1,-1,-1,-1,-1,-1,-1,-1,-1,-1,-1,-1,-1,-1,-1,-1,-1,-1,-1,-1,-1,-1,-1,-1,-1,-1],"split_conditions":[6.9643E3,3.5435E3,1.1328E3,1.6607E4,3.2571E2,-7.5872205E-2,3.5435E3,1.1786E4,2.1429E2,1.1786E4,3.5143E2,3.3859133E-3,2.1429E2,7E0,1.1328E3,-6.701994E-3,6.5143E2,5E0,5.9543E3,2.1429E2,4.8857E2,1.7502785E-3,3.301859E-4,4.8857E2,3.5143E2,4.8857E2,1.0591433E-3,3.5143E2,3.5143E2,6.9643E3,6.9643E3,1.6607E4,1.0776E4,1.6607E4,1.1786E4,5E0,6.5143E2,-7.5862685E-4,-1.4118355E-5,5.583704E-4,1.1097272E-3,2.2201538E-4,4.3445654E-4,1.9645453E-3,-2.1398186E-3,-5.462448E-3,-9.4296335E-4,5.6439178E-5,-2.0315545E-3,-3.8487435E-4,1.5773274E-3,7.702112E-4,-2.7625323E-3,5.404069E-4,2.3478556E-3,1.1344597E-3,-1.3793809E-3,-7.039117E-4,8.885384E-4,-5.6229724E-4,1.0094539E-3,1.4561777E-3,7.8558846E-4],"split_indices":[0,5,5,6,1,0,5,6,2,6,2,0,2,4,5,0,1,4,5,2,1,0,0,1,2,1,0,2,2,6,6,6,5,6,6,4,1,0,0,0,0,0,0,0,0,0,0,0,0,0,0,0,0,0,0,0,0,0,0,0,0,0,0],"split_type":[0,0,0,0,0,0,0,0,0,0,0,0,0,0,0,0,0,0,0,0,0,0,0,0,0,0,0,0,0,0,0,0,0,0,0,0,0,0,0,0,0,0,0,0,0,0,0,0,0,0,0,0,0,0,0,0,0,0,0,0,0,0,0],"sum_hessian":[4.07E2,3.99E2,8E0,1.19E2,2.8E2,2E0,6E0,9.5E1,2.4E1,7.4E1,2.06E2,3E0,3E0,7.2E1,2.3E1,2E0,2.2E1,5.4E1,2E1,1.04E2,1.02E2,2E0,1E0,6E1,1.2E1,1.1E1,1.2E1,1.7E1,5E0,2.5E1,2.9E1,4E0,1.6E1,5E1,5.4E1,3.6E1,6.6E1,2.5E1,3.5E1,7E0,5E0,5E0,6E0,6E0,1.1E1,2E0,3E0,1.2E1,1.3E1,1.9E1,1E1,2E0,2E0,1.2E1,4E0,4.4E1,6E0,4E1,1.4E1,2.1E1,1.5E1,3.4E1,3.2E1],"tree_param":{"num_deleted":"0","num_feature":"7","num_nodes":"63","size_leaf_vector":"1"}},{"base_weights":[-3.5019803E-3,1.2876332E-3,-2.1598458E-1,-9.053332E-3,2.211449E-3,-7.0814036E-2,2.5794268E-2,-2.4721732E-3,-2.0364344E-2,1.291844E-3,7.6526515E-3,